{"learner":{"attributes":{"scikit_learn":"{\"_estimator_type\": \"classifier\"}"},"feature_names":[],"feature_types":[],"gradient_booster":{"model":{"cats":{"enc":[],"feature_segments":[],"sorted_idx":[]},"gbtree_model_param":{"num_parallel_tree":"1","num_trees":"200"},"iteration_indptr":[0,1,2,3,4,5,6,7,8,9,10,11,12,13,14,15,16,17,18,19,20,21,22,23,24,25,26,27,28,29,30,31,32,33,34,35,36,37,38,39,40,41,42,43,44,45,46,47,48,49,50,51,52,53,54,55,56,57,58,59,60,61,62,63,64,65,66,67,68,69,70,71,72,73,74,75,76,77,78,79,80,81,82,83,84,85,86,87,88,89,90,91,92,93,94,95,96,97,98,99,100,101,102,103,104,105,106,107,108,109,110,111,112,113,114,115,116,117,118,119,120,121,122,123,124,125,126,127,128,129,130,131,132,133,134,135,136,137,138,139,140,141,142,143,144,145,146,147,148,149,150,151,152,153,154,155,156,157,158,159,160,161,162,163,164,165,166,167,168,169,170,171,172,173,174,175,176,177,178,179,180,181,182,183,184,185,186,187,188,189,190,191,192,193,194,195,196,197,198,199,200],"tree_info":[0,0,0,0,0,0,0,0,0,0,0,0,0,0,0,0,0,0,0,0,0,0,0,0,0,0,0,0,0,0,0,0,0,0,0,0,0,0,0,0,0,0,0,0,0,0,0,0,0,0,0,0,0,0,0,0,0,0,0,0,0,0,0,0,0,0,0,0,0,0,0,0,0,0,0,0,0,0,0,0,0,0,0,0,0,0,0,0,0,0,0,0,0,0,0,0,0,0,0,0,0,0,0,0,0,0,0,0,0,0,0,0,0,0,0,0,0,0,0,0,0,0,0,0,0,0,0,0,0,0,0,0,0,0,0,0,0,0,0,0,0,0,0,0,0,0,0,0,0,0,0,0,0,0,0,0,0,0,0,0,0,0,0,0,0,0,0,0,0,0,0,0,0,0,0,0,0,0,0,0,0,0,0,0,0,0,0,0,0,0,0,0,0,0,0,0,0,0,0,0],"trees":[{"base_weights":[6.260444E-8,-7.159353E-2,7.923554E-2,2.1774553E-1,-5.9734684E-1,3.4860966E-1,-8.384507E-1,-1.1639688E0,-1.3098812E-1,6.4129494E-2,2.3823814E-1,-2.0013324E-3,-1.1107476E0,-1.2970968E-2,-7.159353E-2,3.8025353E-2,-5.3063595E-1,6.250116E-2,7.3096925E-1,-6.8939954E-2,-1.2970968E-2,-5.226093E-2,5.388763E-3,4.7375448E-2,-5.035692E-3,4.708354E-2,-1.1220052E-2],"categories":[],"categories_nodes":[],"categories_segments":[],"categories_sizes":[],"default_left":[0,0,0,0,0,0,0,0,0,0,0,0,0,0,0,0,0,0,0,0,0,0,0,0,0,0,0],"id":0,"left_children":[1,-1,3,5,7,9,11,13,15,-1,17,-1,19,-1,-1,-1,21,23,25,-1,-1,-1,-1,-1,-1,-1,-1],"loss_changes":[7.0266438E0,0E0,5.62972E0,7.1266446E0,2.5533705E0,4.3024726E0,1.2044911E0,7.1809053E-1,2.8061936E0,0E0,3.5223227E0,0E0,6.1133814E-1,0E0,0E0,0E0,1.8358028E0,4.640598E0,2.373085E0,0E0,0E0,0E0,0E0,0E0,0E0,0E0,0E0],"parents":[2147483647,0,0,2,2,3,3,4,4,5,5,6,6,7,7,8,8,10,10,12,12,16,16,17,17,18,18],"right_children":[2,-1,4,6,8,10,12,14,16,-1,18,-1,20,-1,-1,-1,22,24,26,-1,-1,-1,-1,-1,-1,-1,-1],"split_conditions":[7.360213E-4,-7.159353E-2,9.053285E-4,5.112269E-4,9.979952E-1,8.235479E-4,1.8721904E-3,1.8832702E-3,9.989207E-1,6.4129494E-2,2.1209565E-4,-2.0013324E-3,2.2160634E-3,-1.2970968E-2,-7.159353E-2,3.8025353E-2,9.998609E-1,-5.664597E-4,9.980151E-1,-6.8939954E-2,-1.2970968E-2,-5.226093E-2,5.388763E-3,4.7375448E-2,-5.035692E-3,4.708354E-2,-1.1220052E-2],"split_indices":[4,0,0,6,1,4,4,4,1,0,6,0,4,0,0,0,1,6,2,0,0,0,0,0,0,0,0],"split_type":[0,0,0,0,0,0,0,0,0,0,0,0,0,0,0,0,0,0,0,0,0,0,0,0,0,0,0],"sum_hessian":[5.9933334E1,2.2475E0,5.7685833E1,4.8446114E1,9.239722E0,4.370139E1,4.7447224E0,3.4961112E0,5.7436113E0,3.4961112E0,4.020528E1,1.4983333E0,3.246389E0,1.2486111E0,2.2475E0,1.4983333E0,4.245278E0,3.0466112E1,9.739167E0,1.9977778E0,1.2486111E0,1.9977778E0,2.2475E0,3.9955556E0,2.6470556E1,7.9911113E0,1.7480556E0],"tree_param":{"num_deleted":"0","num_feature":"8","num_nodes":"27","size_leaf_vector":"1"}},{"base_weights":[-1.7276452E-3,-6.906136E-2,7.473233E-2,2.0818122E-1,-5.76453E-1,3.3461994E-1,-8.107204E-1,-1.1238072E0,-1.2574792E-1,6.1791476E-2,2.283521E-1,-1.1068167E-3,-1.0837939E0,-6.9519855E-2,-1.1954654E-2,-5.1722467E-1,3.736364E-2,8.276594E-3,5.8439434E-1,-1.21068135E-2,-6.768309E-2,-5.086995E-2,5.202982E-3,4.556057E-2,-9.620227E-3,3.962283E-2,-8.208464E-3],"categories":[],"categories_nodes":[],"categories_segments":[],"categories_sizes":[],"default_left":[0,0,0,0,0,0,0,0,0,0,0,0,0,0,0,0,0,0,0,0,0,0,0,0,0,0,0],"id":1,"left_children":[1,-1,3,5,7,9,11,13,15,-1,17,-1,19,-1,-1,21,-1,23,25,-1,-1,-1,-1,-1,-1,-1,-1],"loss_changes":[6.5277123E0,0E0,5.21749E0,6.6376405E0,2.385326E0,3.995799E0,1.2136891E0,7.287016E-1,2.6910007E0,0E0,3.2222362E0,0E0,6.371803E-1,0E0,0E0,1.7361618E0,0E0,4.9711213E0,2.5781522E0,0E0,0E0,0E0,0E0,0E0,0E0,0E0,0E0],"parents":[2147483647,0,0,2,2,3,3,4,4,5,5,6,6,7,7,8,8,10,10,12,12,15,15,17,17,18,18],"right_children":[2,-1,4,6,8,10,12,14,16,-1,18,-1,20,-1,-1,22,-1,24,26,-1,-1,-1,-1,-1,-1,-1,-1],"split_conditions":[7.360213E-4,-6.906136E-2,9.053285E-4,5.112269E-4,9.979952E-1,8.235479E-4,7.41399E-1,6.2648064E-1,1.8691405E-3,6.1791476E-2,1.2722594E-4,-1.1068167E-3,-3.7284027E-4,-6.9519855E-2,-1.1954654E-2,9.998609E-1,3.736364E-2,-5.664597E-4,9.982759E-1,-1.21068135E-2,-6.768309E-2,-5.086995E-2,5.202982E-3,4.556057E-2,-9.620227E-3,3.962283E-2,-8.208464E-3],"split_indices":[4,0,0,6,1,4,5,5,4,0,6,0,0,0,0,1,0,6,2,0,0,0,0,0,0,0,0],"split_type":[0,0,0,0,0,0,0,0,0,0,0,0,0,0,0,0,0,0,0,0,0,0,0,0,0,0,0],"sum_hessian":[5.990921E1,2.2499866E0,5.765922E1,4.8417267E1,9.241957E0,4.366974E1,4.747528E0,3.4990852E0,5.7428713E0,3.4850678E0,4.018467E1,1.4991972E0,3.2483308E0,2.249629E0,1.2494562E0,4.246305E0,1.4965665E0,2.5466597E1,1.4718072E1,1.2492964E0,1.9990344E0,1.9992249E0,2.24708E0,3.987017E0,2.147958E1,1.1471068E1,3.2470038E0],"tree_param":{"num_deleted":"0","num_feature":"8","num_nodes":"27","size_leaf_vector":"1"}},{"base_weights":[-3.4394604E-3,-6.673479E-2,7.037652E-2,1.9897492E-1,-5.566839E-1,3.211658E-1,-7.8425837E-1,-1.0861934E0,-1.2074383E-1,5.9626754E-2,2.1876067E-1,-7.98814E-4,-1.051668E0,-1.1309525E-2,-6.736777E-2,-5.0010586E-1,3.6288735E-2,5.1467577E-3,5.64896E-1,-1.1523985E-2,-6.584335E-2,-4.9174093E-2,5.0236466E-3,7.6105036E-3,-6.5964706E-2,4.2960122E-2,-2.1655342E-2],"categories":[],"categories_nodes":[],"categories_segments":[],"categories_sizes":[],"default_left":[0,0,0,0,0,0,0,0,0,0,0,0,0,0,0,0,0,0,0,0,0,0,0,0,0,0,0],"id":2,"left_children":[1,-1,3,5,7,9,11,13,15,-1,17,-1,19,-1,-1,21,-1,23,25,-1,-1,-1,-1,-1,-1,-1,-1],"loss_changes":[6.0736537E0,0E0,4.8365517E0,6.1830087E0,2.2318118E0,3.720693E0,1.164002E0,7.0530844E-1,2.5272436E0,0E0,3.0398712E0,0E0,6.216364E-1,0E0,0E0,1.6217209E0,0E0,5.3539815E0,4.9822025E0,0E0,0E0,0E0,0E0,0E0,0E0,0E0,0E0],"parents":[2147483647,0,0,2,2,3,3,4,4,5,5,6,6,7,7,8,8,10,10,12,12,15,15,17,17,18,18],"right_children":[2,-1,4,6,8,10,12,14,16,-1,18,-1,20,-1,-1,22,-1,24,26,-1,-1,-1,-1,-1,-1,-1,-1],"split_conditions":[7.360213E-4,-6.673479E-2,9.053285E-4,5.112269E-4,9.979952E-1,8.235479E-4,1.8721904E-3,1.2580464E-3,1.8691405E-3,5.9626754E-2,1.6808885E-3,-7.98814E-4,5.727312E-4,-1.1309525E-2,-6.736777E-2,9.998609E-1,3.6288735E-2,1.2641244E-3,2.1692014E-3,-1.1523985E-2,-6.584335E-2,-4.9174093E-2,5.0236466E-3,7.6105036E-3,-6.5964706E-2,4.2960122E-2,-2.1655342E-2],"split_indices":[4,0,0,6,1,4,4,7,4,0,4,0,6,0,0,1,0,7,4,0,0,0,0,0,0,0,0],"split_type":[0,0,0,0,0,0,0,0,0,0,0,0,0,0,0,0,0,0,0,0,0,0,0,0,0,0,0],"sum_hessian":[5.9851166E1,2.2469256E0,5.760424E1,4.8367626E1,9.236612E0,4.3620117E1,4.7475123E0,3.4971855E0,5.739427E0,3.4677377E0,4.0152378E1,1.4994004E0,3.248112E0,1.2493116E0,2.2478738E0,4.245882E0,1.4935452E0,2.5456825E1,1.4695553E1,1.2491629E0,1.998949E0,1.9992381E0,2.2466438E0,2.370927E1,1.7475548E0,1.1456239E1,3.2393136E0],"tree_param":{"num_deleted":"0","num_feature":"8","num_nodes":"27","size_leaf_vector":"1"}},{"base_weights":[-6.693154E-3,-6.458903E-2,6.453499E-2,1.9192891E-1,-5.215986E-1,3.1153968E-1,-7.591584E-1,-1.0509871E0,-1.20570555E-1,5.7614334E-2,2.1187507E-1,-2.3847209E-4,-1.0244018E0,-6.5380685E-2,-1.0688434E-2,-5.60276E-1,4.028287E-2,3.441773E-2,7.217443E-1,-6.4693786E-2,-1.0475622E-2,-2.5409551E-2,-5.9595544E-2,-3.869033E-3,5.1042046E-2,4.6905097E-2,-1.1263777E-2,-2.8038368E-2,3.2011252E-2],"categories":[],"categories_nodes":[],"categories_segments":[],"categories_sizes":[],"default_left":[0,0,0,0,0,0,0,0,0,0,0,0,0,0,0,0,0,0,0,0,0,0,0,0,0,0,0,0,0],"id":3,"left_children":[1,-1,3,5,7,9,11,13,15,-1,17,-1,19,-1,-1,21,-1,23,25,-1,-1,27,-1,-1,-1,-1,-1,-1,-1],"loss_changes":[5.645786E0,0E0,4.4705167E0,5.789238E0,2.1489105E0,3.4483552E0,1.144422E0,6.8526554E-1,3.395305E0,0E0,3.6506495E0,0E0,6.6106653E-1,0E0,0E0,1.8249223E0,0E0,3.5180004E0,2.3500123E0,0E0,0E0,1.7827327E0,0E0,0E0,0E0,0E0,0E0,0E0,0E0],"parents":[2147483647,0,0,2,2,3,3,4,4,5,5,6,6,7,7,8,8,10,10,12,12,15,15,17,17,18,18,21,21],"right_children":[2,-1,4,6,8,10,12,14,16,-1,18,-1,20,-1,-1,22,-1,24,26,-1,-1,28,-1,-1,-1,-1,-1,-1,-1],"split_conditions":[7.360213E-4,-6.458903E-2,8.852828E-4,5.112269E-4,9.979952E-1,8.235479E-4,7.41399E-1,6.2648064E-1,1.8691405E-3,5.7614334E-2,2.1209565E-4,-2.3847209E-4,7.159231E-4,-6.5380685E-2,-1.0688434E-2,1.1957E-4,4.028287E-2,6.5675203E-4,9.980151E-1,-6.4693786E-2,-1.0475622E-2,9.977515E-1,-5.9595544E-2,-3.869033E-3,5.1042046E-2,4.6905097E-2,-1.1263777E-2,-2.8038368E-2,3.2011252E-2],"split_indices":[4,0,0,6,1,4,5,5,4,0,6,0,6,0,0,6,0,0,2,0,0,2,0,0,0,0,0,0,0],"split_type":[0,0,0,0,0,0,0,0,0,0,0,0,0,0,0,0,0,0,0,0,0,0,0,0,0,0,0,0,0],"sum_hessian":[5.976864E1,2.2389016E0,5.752974E1,4.7810795E1,9.718945E0,4.306703E1,4.7437634E0,3.49049E0,6.2284546E0,3.4449136E0,3.9622116E1,1.4988393E0,3.2449243E0,2.2415495E0,1.2489405E0,4.4913764E0,1.7370782E0,3.0184174E1,9.4379425E0,1.9968104E0,1.2481139E0,2.9952426E0,1.4961336E0,2.7939182E1,2.2449927E0,7.690399E0,1.7475435E0,1.7473918E0,1.2478508E0],"tree_param":{"num_deleted":"0","num_feature":"8","num_nodes":"29","size_leaf_vector":"1"}},{"base_weights":[-7.853421E-3,-6.260296E-2,6.097519E-2,1.8396263E-1,-5.0504297E-1,2.9962674E-1,-7.351537E-1,-1.0179445E0,-1.1680673E-1,5.5736393E-2,2.0352814E-1,-2.196409E-1,-6.0857654E-2,-1.0098282E-2,-6.3528314E-2,-7.482658E-1,5.068632E-1,-2.0241776E-2,5.710327E-1,1.9613272E-2,-3.7217025E-2,-6.0252752E-2,4.6259467E-4,4.4307526E-2,-1.1082512E-2,4.0304113E-2,-9.63804E-3,3.905107E-2,-8.202266E-3],"categories":[],"categories_nodes":[],"categories_segments":[],"categories_sizes":[],"default_left":[0,0,0,0,0,0,0,0,0,0,0,0,0,0,0,0,0,0,0,0,0,0,0,0,0,0,0,0,0],"id":4,"left_children":[1,-1,3,5,7,9,11,13,15,-1,17,19,-1,-1,-1,21,23,25,27,-1,-1,-1,-1,-1,-1,-1,-1,-1,-1],"loss_changes":[5.2714972E0,0E0,4.160988E0,5.4017763E0,2.011406E0,3.2198477E0,1.1583135E0,6.6676426E-1,3.2221723E0,0E0,3.349147E0,1.5738664E0,0E0,0E0,0E0,1.3920727E0,1.3646636E0,3.889138E0,2.5042915E0,0E0,0E0,0E0,0E0,0E0,0E0,0E0,0E0,0E0,0E0],"parents":[2147483647,0,0,2,2,3,3,4,4,5,5,6,6,7,7,8,8,10,10,11,11,15,15,16,16,17,17,18,18],"right_children":[2,-1,4,6,8,10,12,14,16,-1,18,20,-1,-1,-1,22,24,26,28,-1,-1,-1,-1,-1,-1,-1,-1,-1,-1],"split_conditions":[7.360213E-4,-6.260296E-2,8.852828E-4,5.112269E-4,9.979952E-1,8.235479E-4,-1.9511698E-4,1.2580464E-3,9.99535E-4,5.5736393E-2,1.2722594E-4,6.3780357E1,-6.0857654E-2,-1.0098282E-2,-6.3528314E-2,9.977515E-1,9.991441E-1,-5.664597E-4,9.982759E-1,1.9613272E-2,-3.7217025E-2,-6.0252752E-2,4.6259467E-4,4.4307526E-2,-1.1082512E-2,4.0304113E-2,-9.63804E-3,3.905107E-2,-8.202266E-3],"split_indices":[4,0,0,6,1,4,0,7,7,0,6,3,0,0,0,2,1,6,2,0,0,0,0,0,0,0,0,0,0],"split_type":[0,0,0,0,0,0,0,0,0,0,0,0,0,0,0,0,0,0,0,0,0,0,0,0,0,0,0,0,0],"sum_hessian":[5.9664852E1,2.22646E0,5.743839E1,4.7740147E1,9.698245E0,4.300259E1,4.7375574E0,3.4794922E0,6.218753E0,3.4173183E0,3.958527E1,2.9925852E0,1.7449722E0,1.247971E0,2.2315211E0,2.9908106E0,3.2279422E0,2.5191397E1,1.4393873E1,1.498006E0,1.4945791E0,1.4971952E0,1.4936153E0,1.9804661E0,1.2474761E0,3.7167318E0,2.1474665E1,1.1147018E1,3.2468548E0],"tree_param":{"num_deleted":"0","num_feature":"8","num_nodes":"29","size_leaf_vector":"1"}},{"base_weights":[-9.509219E-3,-6.075844E-2,5.701666E-2,2.2717899E-1,-3.4174922E-1,-6.205972E-1,3.1544065E-1,3.7611604E-2,-4.8717383E-1,1.8881695E-2,-6.512414E-2,4.866414E-1,-1.5711644E-1,2.690564E-2,-6.062501E-1,2.5777256E-1,1.2247893E0,-7.498047E-1,5.119579E-1,-1.1533237E0,-2.6871836E-1,3.0422447E-2,-4.294617E-3,1.5183799E-2,7.201704E-2,-5.651904E-2,1.4113178E-2,-1.9688139E-2,5.509428E-2,-1.9280186E-2,-7.3861934E-2,7.4640713E-3,-4.4066165E-2],"categories":[],"categories_nodes":[],"categories_segments":[],"categories_sizes":[],"default_left":[0,0,0,0,0,0,0,0,0,0,0,0,0,0,0,0,0,0,0,0,0,0,0,0,0,0,0,0,0,0,0,0,0],"id":5,"left_children":[1,-1,3,5,7,9,11,-1,13,-1,-1,15,17,-1,19,21,23,25,27,29,31,-1,-1,-1,-1,-1,-1,-1,-1,-1,-1,-1,-1],"loss_changes":[4.924282E0,0E0,4.034959E0,3.299385E0,3.2050624E0,3.3834252E0,3.169328E0,0E0,2.3230782E0,0E0,0E0,4.4664416E0,4.715311E0,0E0,2.4828367E0,2.8089256E0,8.3985806E-1,2.7534206E0,3.492803E0,7.8989697E-1,2.8605304E0,0E0,0E0,0E0,0E0,0E0,0E0,0E0,0E0,0E0,0E0,0E0,0E0],"parents":[2147483647,0,0,2,2,3,3,4,4,5,5,6,6,8,8,11,11,12,12,14,14,15,15,16,16,17,17,18,18,19,19,20,20],"right_children":[2,-1,4,6,8,10,12,-1,14,-1,-1,16,18,-1,20,22,24,26,28,30,32,-1,-1,-1,-1,-1,-1,-1,-1,-1,-1,-1,-1],"split_conditions":[7.360213E-4,-6.075844E-2,1.2641244E-3,9.8976386E-1,9.9100685E-1,4.104762E1,7.575469E-1,3.7611604E-2,-7.2068884E-4,1.8881695E-2,-6.512414E-2,1.7058103E-4,9.998561E-1,2.690564E-2,1.3504365E-3,2.7187896E-1,1.4124571E-3,6.501767E1,6.563875E-4,9.943138E-1,1.5973845E-3,3.0422447E-2,-4.294617E-3,1.5183799E-2,7.201704E-2,-5.651904E-2,1.4113178E-2,-1.9688139E-2,5.509428E-2,-1.9280186E-2,-7.3861934E-2,7.4640713E-3,-4.4066165E-2],"split_indices":[4,0,7,2,2,3,5,0,6,0,0,6,1,0,7,5,4,3,7,2,7,0,0,0,0,0,0,0,0,0,0,0,0],"split_type":[0,0,0,0,0,0,0,0,0,0,0,0,0,0,0,0,0,0,0,0,0,0,0,0,0,0,0,0,0,0,0,0,0],"sum_hessian":[5.9530415E1,2.2101102E0,5.7320305E1,4.047781E1,1.6842495E1,3.2480555E0,3.7229755E1,1.486604E0,1.535589E1,1.4993327E0,1.7487228E0,2.7307007E1,9.922748E0,1.2316777E0,1.4124212E1,2.1874006E1,5.433001E0,5.1977496E0,4.7249985E0,4.467053E0,9.65716E0,1.0445216E1,1.142879E1,1.4870868E0,3.9459145E0,3.7278452E0,1.4699042E0,1.9948354E0,2.730163E0,1.9754446E0,2.4916081E0,6.1899066E0,3.4672532E0],"tree_param":{"num_deleted":"0","num_feature":"8","num_nodes":"33","size_leaf_vector":"1"}},{"base_weights":[-1.01169245E-2,-5.90399E-2,5.418736E-2,1.6866897E-1,-5.037264E-1,2.7642614E-1,-6.966073E-1,-6.913862E-1,1.784682E-2,7.6836663E-1,1.2735648E-1,1.665986E-3,-9.62433E-1,-8.2989834E-2,-6.255983E-2,9.6316373E-1,-1.7788704E-2,-1.5811542E-1,4.9770412E-1,-6.0760714E-2,-9.920236E-3,-5.4206985E-1,2.6498882E-2,-1.4469345E-2,6.0208917E-2,3.256289E-4,-6.1685074E-2,3.8850687E-2,-2.1726621E-2,-3.235472E-2,-9.749788E-3],"categories":[],"categories_nodes":[],"categories_segments":[],"categories_sizes":[],"default_left":[0,0,0,0,0,0,0,0,0,0,0,0,0,0,0,0,0,0,0,0,0,0,0,0,0,0,0,0,0,0,0],"id":6,"left_children":[1,-1,3,5,7,9,11,13,-1,15,17,-1,19,21,-1,23,-1,25,27,-1,-1,29,-1,-1,-1,-1,-1,-1,-1,-1,-1],"loss_changes":[4.6130304E0,0E0,3.8046868E0,4.7679963E0,1.8887815E0,3.1547203E0,1.1416414E0,2.8548522E0,0E0,2.5578337E0,3.80413E0,0E0,5.749419E-1,1.760113E0,0E0,3.0326872E0,0E0,3.6659458E0,4.3942957E0,0E0,0E0,9.237528E-4,0E0,0E0,0E0,0E0,0E0,0E0,0E0,0E0,0E0],"parents":[2147483647,0,0,2,2,3,3,4,4,5,5,6,6,7,7,9,9,10,10,12,12,13,13,15,15,17,17,18,18,21,21],"right_children":[2,-1,4,6,8,10,12,14,-1,16,18,-1,20,22,-1,24,-1,26,28,-1,-1,30,-1,-1,-1,-1,-1,-1,-1,-1,-1],"split_conditions":[7.360213E-4,-5.90399E-2,9.053285E-4,5.112269E-4,2.228344E-3,9.120502E-4,1.8721904E-3,1.6208153E-3,1.784682E-2,4.580347E-4,1.6808885E-3,1.665986E-3,2.2160634E-3,9.3899085E-4,-6.255983E-2,9.9763954E-1,-1.7788704E-2,1.2641244E-3,2.1692014E-3,-6.0760714E-2,-9.920236E-3,9.9780256E-1,2.6498882E-2,-1.4469345E-2,6.0208917E-2,3.256289E-4,-6.1685074E-2,3.8850687E-2,-2.1726621E-2,-3.235472E-2,-9.749788E-3],"split_indices":[4,0,0,6,4,4,4,4,0,0,4,0,4,7,0,2,0,7,4,0,0,2,0,0,0,0,0,0,0,0,0],"split_type":[0,0,0,0,0,0,0,0,0,0,0,0,0,0,0,0,0,0,0,0,0,0,0,0,0,0,0,0,0,0,0],"sum_hessian":[5.9428513E1,2.1903214E0,5.7238194E1,4.8071747E1,9.166445E0,4.3353283E1,4.7184663E0,7.687037E0,1.4794078E0,9.115864E0,3.423742E1,1.4931374E0,3.2253287E0,4.2339106E0,3.4531267E0,7.8915706E0,1.2242936E0,1.9657814E1,1.4579603E1,1.9797772E0,1.2455516E0,2.486967E0,1.7469432E0,1.2410651E0,6.6505055E0,1.7910412E1,1.7474024E0,1.1346544E1,3.2330594E0,1.2456166E0,1.2413507E0],"tree_param":{"num_deleted":"0","num_feature":"8","num_nodes":"31","size_leaf_vector":"1"}},{"base_weights":[-1.3019731E-2,-5.7433814E-2,4.91049E-2,2.0798749E-1,-3.2295126E-1,-5.968872E-1,2.9230115E-1,3.653634E-2,-4.6341306E-1,1.8474242E-2,-6.29045E-2,4.6587887E-1,-1.5138452E-1,2.606088E-2,-5.7803583E-1,5.702245E-1,-2.4943376E-2,7.878318E-2,-5.6469716E-2,-1.0961566E0,-2.5750875E-1,1.3532109E-2,6.005418E-2,2.8479194E-2,-3.0560842E-2,-1.8270612E-2,-7.018962E-2,6.8017202E-3,-4.1652627E-2],"categories":[],"categories_nodes":[],"categories_segments":[],"categories_sizes":[],"default_left":[0,0,0,0,0,0,0,0,0,0,0,0,0,0,0,0,0,0,0,0,0,0,0,0,0,0,0,0,0],"id":7,"left_children":[1,-1,3,5,7,9,11,-1,13,-1,-1,15,17,-1,19,21,-1,23,-1,25,27,-1,-1,-1,-1,-1,-1,-1,-1],"loss_changes":[4.3093266E0,0E0,3.5024133E0,2.9792714E0,2.9703813E0,3.1790342E0,3.0034657E0,0E0,2.1411722E0,0E0,0E0,3.0648184E0,2.6695843E0,0E0,2.2215133E0,4.4735365E0,0E0,3.807395E0,0E0,7.133646E-1,2.519084E0,0E0,0E0,0E0,0E0,0E0,0E0,0E0,0E0],"parents":[2147483647,0,0,2,2,3,3,4,4,5,5,6,6,8,8,11,11,12,12,14,14,15,15,17,17,19,19,20,20],"right_children":[2,-1,4,6,8,10,12,-1,14,-1,-1,16,18,-1,20,22,-1,24,-1,26,28,-1,-1,-1,-1,-1,-1,-1,-1],"split_conditions":[7.360213E-4,-5.7433814E-2,1.2641244E-3,9.8976386E-1,9.9100685E-1,4.104762E1,9.9907786E-1,3.653634E-2,-7.2068884E-4,1.8474242E-2,-6.29045E-2,9.0300214E-1,1.1052258E-3,2.606088E-2,1.3504365E-3,9.997076E-1,-2.4943376E-2,1.0000795E0,-5.6469716E-2,9.943138E-1,1.5973845E-3,1.3532109E-2,6.005418E-2,2.8479194E-2,-3.0560842E-2,-1.8270612E-2,-7.018962E-2,6.8017202E-3,-4.1652627E-2],"split_indices":[4,0,7,2,2,3,2,0,6,0,0,5,7,0,7,1,0,1,0,2,7,0,0,0,0,0,0,0,0],"split_type":[0,0,0,0,0,0,0,0,0,0,0,0,0,0,0,0,0,0,0,0,0,0,0,0,0,0,0,0,0],"sum_hessian":[5.9280453E1,2.1675284E0,5.7112923E1,4.0330986E1,1.6781937E1,3.247771E0,3.7083218E1,1.4796895E0,1.5302247E1,1.4986429E0,1.7491281E0,2.6619267E1,1.046395E1,1.2257333E0,1.4076514E1,2.4390194E1,2.229072E0,9.214766E0,1.2491847E0,4.4551177E0,9.621396E0,1.7505966E1,6.884228E0,5.48662E0,3.7281456E0,1.968067E0,2.4870505E0,6.167707E0,3.4536896E0],"tree_param":{"num_deleted":"0","num_feature":"8","num_nodes":"29","size_leaf_vector":"1"}},{"base_weights":[-1.5247727E-2,-5.592847E-2,4.4768207E-2,1.5435752E-1,-4.881022E-1,2.575577E-1,-6.722743E-1,-6.719676E-1,1.7573258E-2,5.2025087E-2,1.6808495E-1,-1.8469074E-1,-5.6872755E-2,-4.82886E-3,-1.118835E0,4.4018183E-2,8.430609E-2,2.0034084E-2,-3.491638E-2,-2.1895682E-2,3.1107588E-2,-8.107742E-3,-6.880436E-2,-5.0982784E-2,9.136522E-3],"categories":[],"categories_nodes":[],"categories_segments":[],"categories_sizes":[],"default_left":[0,0,0,0,0,0,0,0,0,0,0,0,0,0,0,0,0,0,0,0,0,0,0,0,0],"id":8,"left_children":[1,-1,3,5,7,9,11,13,-1,-1,15,17,-1,19,21,-1,23,-1,-1,-1,-1,-1,-1,-1,-1],"loss_changes":[4.0337167E0,0E0,3.4634356E0,4.3431563E0,1.8009801E0,2.9199576E0,1.0832756E0,2.576091E0,0E0,0E0,2.3629208E0,1.4758472E0,0E0,1.488341E0,1.0520287E0,0E0,4.277106E0,0E0,0E0,0E0,0E0,0E0,0E0,0E0,0E0],"parents":[2147483647,0,0,2,2,3,3,4,4,5,5,6,6,7,7,10,10,11,11,13,13,14,14,16,16],"right_children":[2,-1,4,6,8,10,12,14,-1,-1,16,18,-1,20,22,-1,24,-1,-1,-1,-1,-1,-1,-1,-1],"split_conditions":[7.360213E-4,-5.592847E-2,9.053285E-4,5.112269E-4,2.228344E-3,8.235479E-4,-1.9511698E-4,1.569326E-3,1.7573258E-2,5.2025087E-2,9.950757E-1,6.3780357E1,-5.6872755E-2,1.179194E-3,9.9101436E-1,4.4018183E-2,9.9538064E-1,2.0034084E-2,-3.491638E-2,-2.1895682E-2,3.1107588E-2,-8.107742E-3,-6.880436E-2,-5.0982784E-2,9.136522E-3],"split_indices":[4,0,0,6,4,4,0,4,0,0,1,3,0,4,2,0,1,0,0,0,0,0,0,0,0],"split_type":[0,0,0,0,0,0,0,0,0,0,0,0,0,0,0,0,0,0,0,0,0,0,0,0,0],"sum_hessian":[5.9160503E1,2.1421292E0,5.701837E1,4.788147E1,9.136903E0,4.3179222E1,4.7022495E0,7.659169E0,1.4777333E0,3.3382378E0,3.9840984E1,2.9779325E0,1.724317E0,3.4778345E0,4.181335E0,3.1922908E0,3.6648693E1,1.494556E0,1.4833765E0,2.2353356E0,1.2424991E0,1.2315881E0,2.9497466E0,2.2338018E0,3.441489E1],"tree_param":{"num_deleted":"0","num_feature":"8","num_nodes":"25","size_leaf_vector":"1"}},{"base_weights":[-1.6593171E-2,-5.4513663E-2,4.14613E-2,1.8554026E-1,-3.3943546E-1,-7.4990565E-1,2.743921E-1,7.3905593E-1,-5.8682966E-1,7.0291758E-3,-6.023698E-2,4.0251338E-1,-3.8695693E-1,5.0732054E-2,6.622504E-3,-8.96584E-1,1.4525725E-1,5.795708E-2,2.8490764E-1,-7.625696E-1,1.4353532E-1,1.9955644E-2,-1.2198726E0,-4.3923754E-2,4.8359644E-2,-3.2454256E-2,2.4474645E-2,-5.9916563E-2,1.1637035E-3,3.8594242E-2,-3.0921621E-2,-2.1969898E-2,-7.8688696E-2],"categories":[],"categories_nodes":[],"categories_segments":[],"categories_sizes":[],"default_left":[0,0,0,0,0,0,0,0,0,0,0,0,0,0,0,0,0,0,0,0,0,0,0,0,0,0,0,0,0,0,0,0,0],"id":9,"left_children":[1,-1,3,5,7,9,11,13,15,-1,-1,17,19,-1,-1,21,23,-1,25,27,29,-1,31,-1,-1,-1,-1,-1,-1,-1,-1,-1,-1],"loss_changes":[3.7851672E0,0E0,3.2397323E0,3.7503405E0,4.7668014E0,1.7761712E0,3.5178597E0,4.4616854E-1,3.2522326E0,0E0,0E0,2.6711416E0,1.494159E0,0E0,0E0,4.5976257E0,5.0180125E0,0E0,6.149147E0,1.4753664E0,2.2595282E0,0E0,1.5459261E0,0E0,0E0,0E0,0E0,0E0,0E0,0E0,0E0,0E0,0E0],"parents":[2147483647,0,0,2,2,3,3,4,4,5,5,6,6,7,7,8,8,11,11,12,12,15,15,16,16,18,18,19,19,20,20,22,22],"right_children":[2,-1,4,6,8,10,12,14,16,-1,-1,18,20,-1,-1,22,24,-1,26,28,30,-1,32,-1,-1,-1,-1,-1,-1,-1,-1,-1,-1],"split_conditions":[7.360213E-4,-5.4513663E-2,1.8928922E-3,-1.4032611E-3,-1.0752041E-3,9.9596673E-1,8.852828E-4,-1.6528634E-4,2.2287767E-3,7.0291758E-3,-6.023698E-2,-3.7088967E-4,9.99535E-4,5.0732054E-2,6.622504E-3,1.5612897E-1,9.9772877E-1,5.795708E-2,-1.2413638E-4,9.977515E-1,9.926588E-1,1.9955644E-2,9.9784243E-1,-4.3923754E-2,4.8359644E-2,-3.2454256E-2,2.4474645E-2,-5.9916563E-2,1.1637035E-3,3.8594242E-2,-3.0921621E-2,-2.1969898E-2,-7.8688696E-2],"split_indices":[4,0,4,0,0,2,0,6,4,0,0,6,7,0,0,5,1,0,6,2,2,0,1,0,0,0,0,0,0,0,0,0,0],"split_type":[0,0,0,0,0,0,0,0,0,0,0,0,0,0,0,0,0,0,0,0,0,0,0,0,0,0,0,0,0,0,0,0,0],"sum_hessian":[5.9000767E1,2.1144886E0,5.688628E1,4.1646034E1,1.5240247E1,2.9671774E0,3.8678856E1,2.472828E0,1.2767419E1,1.2367463E0,1.7304311E0,3.2729614E1,5.9492407E0,1.2378236E0,1.2350043E0,8.813592E0,3.9538267E0,3.2115602E0,2.9518055E1,3.2269428E0,2.7222981E0,1.7131162E0,7.100476E0,1.7301332E0,2.2236934E0,4.9135485E0,2.4604506E1,1.7381924E0,1.4887503E0,1.484831E0,1.2374672E0,2.9145243E0,4.185951E0],"tree_param":{"num_deleted":"0","num_feature":"8","num_nodes":"33","size_leaf_vector":"1"}},{"base_weights":[-1.7942607E-2,-5.3180452E-2,3.8222484E-2,1.4036718E-1,-4.5891353E-1,2.3740754E-1,-6.387985E-1,-9.1717285E-1,-8.7930046E-2,5.0364E-2,1.5034494E-1,-1.6319318E-1,-5.493048E-2,-5.8174428E-2,-7.841286E-3,3.2862432E-2,-4.253343E-1,-3.4830462E-2,4.5502225E-1,1.9345205E-2,-3.2619864E-2,-4.427898E-2,6.392506E-3,4.3432782E-3,-5.6035966E-2,3.6055725E-2,-2.1105334E-2],"categories":[],"categories_nodes":[],"categories_segments":[],"categories_sizes":[],"default_left":[0,0,0,0,0,0,0,0,0,0,0,0,0,0,0,0,0,0,0,0,0,0,0,0,0,0,0],"id":10,"left_children":[1,-1,3,5,7,9,11,13,15,-1,17,19,-1,-1,-1,-1,21,23,25,-1,-1,-1,-1,-1,-1,-1,-1],"loss_changes":[3.5549924E0,0E0,2.9971547E0,3.8320637E0,1.6327033E0,2.7986948E0,1.0588925E0,6.4209366E-1,1.9579365E0,0E0,2.3130937E0,1.3174385E0,0E0,0E0,0E0,0E0,1.4376674E0,3.5668316E0,3.9134884E0,0E0,0E0,0E0,0E0,0E0,0E0,0E0,0E0],"parents":[2147483647,0,0,2,2,3,3,4,4,5,5,6,6,7,7,8,8,10,10,11,11,16,16,17,17,18,18],"right_children":[2,-1,4,6,8,10,12,14,16,-1,18,20,-1,-1,-1,-1,22,24,26,-1,-1,-1,-1,-1,-1,-1,-1],"split_conditions":[7.360213E-4,-5.3180452E-2,9.053285E-4,5.112269E-4,9.979952E-1,8.235479E-4,-1.9511698E-4,6.2648064E-1,9.989207E-1,5.0364E-2,1.6808885E-3,6.3780357E1,-5.493048E-2,-5.8174428E-2,-7.841286E-3,3.2862432E-2,9.998609E-1,1.2641244E-3,2.1692014E-3,1.9345205E-2,-3.2619864E-2,-4.427898E-2,6.392506E-3,4.3432782E-3,-5.6035966E-2,3.6055725E-2,-2.1105334E-2],"split_indices":[4,0,0,6,1,4,0,5,1,0,4,3,0,0,0,0,1,7,4,0,0,0,0,0,0,0,0],"split_type":[0,0,0,0,0,0,0,0,0,0,0,0,0,0,0,0,0,0,0,0,0,0,0,0,0,0,0],"sum_hessian":[5.883896E1,2.0849392E0,5.675402E1,4.767588E1,9.078138E0,4.301405E1,4.661834E0,3.4026825E0,5.675456E0,3.2962801E0,3.971777E1,2.9575782E0,1.7042555E0,2.169623E0,1.2330599E0,1.4734008E0,4.202055E0,2.5254427E1,1.4463341E1,1.4905777E0,1.4670005E0,1.9657171E0,2.236338E0,2.3536669E1,1.7177591E0,1.1233372E1,3.229969E0],"tree_param":{"num_deleted":"0","num_feature":"8","num_nodes":"27","size_leaf_vector":"1"}},{"base_weights":[-2.0111127E-2,-5.1921E-2,3.425162E-2,1.6968048E-1,-3.242099E-1,-7.2413224E-1,2.5468206E-1,7.0845646E-1,-5.616605E-1,6.379835E-3,-5.7918906E-2,3.7486523E-1,-3.6516023E-1,4.890221E-2,6.0923942E-3,-8.6245036E-1,1.4567687E-1,5.5668112E-2,2.6083025E-1,-7.3029983E-1,1.4783283E-1,1.8804079E-2,-1.1713659E0,-4.194544E-2,4.6762656E-2,-3.1827826E-2,2.2936692E-2,-5.7945717E-2,1.6944262E-3,3.746542E-2,-2.9351963E-2,-2.0784827E-2,-7.5727105E-2],"categories":[],"categories_nodes":[],"categories_segments":[],"categories_sizes":[],"default_left":[0,0,0,0,0,0,0,0,0,0,0,0,0,0,0,0,0,0,0,0,0,0,0,0,0,0,0,0,0,0,0,0,0],"id":11,"left_children":[1,-1,3,5,7,9,11,13,15,-1,-1,17,19,-1,-1,21,23,-1,25,27,29,-1,31,-1,-1,-1,-1,-1,-1,-1,-1,-1,-1],"loss_changes":[3.3363693E0,0E0,2.8499343E0,3.4089885E0,4.353215E0,1.6072462E0,3.079143E0,4.276569E-1,3.0346236E0,0E0,0E0,2.5371304E0,1.4043458E0,0E0,0E0,4.166188E0,4.6210327E0,0E0,5.6891937E0,1.4187007E0,2.0794826E0,0E0,1.4545765E0,0E0,0E0,0E0,0E0,0E0,0E0,0E0,0E0,0E0,0E0],"parents":[2147483647,0,0,2,2,3,3,4,4,5,5,6,6,7,7,8,8,11,11,12,12,15,15,16,16,18,18,19,19,20,20,22,22],"right_children":[2,-1,4,6,8,10,12,14,16,-1,-1,18,20,-1,-1,22,24,-1,26,28,30,-1,32,-1,-1,-1,-1,-1,-1,-1,-1,-1,-1],"split_conditions":[7.360213E-4,-5.1921E-2,1.8928922E-3,-1.4032611E-3,-1.0752041E-3,9.9596673E-1,8.852828E-4,-1.6528634E-4,2.2287767E-3,6.379835E-3,-5.7918906E-2,-3.7088967E-4,9.99535E-4,4.890221E-2,6.0923942E-3,1.5612897E-1,9.9772877E-1,5.5668112E-2,-1.2413638E-4,9.977515E-1,9.926588E-1,1.8804079E-2,9.9784243E-1,-4.194544E-2,4.6762656E-2,-3.1827826E-2,2.2936692E-2,-5.7945717E-2,1.6944262E-3,3.746542E-2,-2.9351963E-2,-2.0784827E-2,-7.5727105E-2],"split_indices":[4,0,4,0,0,2,0,6,4,0,0,6,7,0,0,5,1,0,6,2,2,0,1,0,0,0,0,0,0,0,0,0,0],"split_type":[0,0,0,0,0,0,0,0,0,0,0,0,0,0,0,0,0,0,0,0,0,0,0,0,0,0,0,0,0,0,0,0,0],"sum_hessian":[5.86264E1,2.0537834E0,5.6572617E1,4.144217E1,1.513045E1,2.9459312E0,3.849624E1,2.4578276E0,1.2672623E1,1.2332337E0,1.7126975E0,3.257533E1,5.9209075E0,1.2267598E0,1.2310678E0,8.737694E0,3.934929E0,3.1851006E0,2.9390228E1,3.2114484E0,2.7094593E0,1.7008934E0,7.0368E0,1.723402E0,2.211527E0,4.9099116E0,2.4480318E1,1.7265431E0,1.4849054E0,1.4791582E0,1.230301E0,2.888245E0,4.148555E0],"tree_param":{"num_deleted":"0","num_feature":"8","num_nodes":"33","size_leaf_vector":"1"}},{"base_weights":[-2.1246254E-2,-5.072839E-2,3.1406745E-2,4.8502842E-1,-7.0677824E-2,8.827009E-1,-5.906216E-2,6.027598E-1,-1.4784984E-1,-1.667229E-2,1.1127138E0,5.8019705E-2,-1.5632328E-2,8.75294E-2,-4.4423515E-1,4.120341E-3,6.438284E-2,3.343016E-1,-6.2453663E-1,-9.826663E-1,1.4606765E-1,-9.087306E-3,4.6080694E-2,-5.384416E-2,2.3061166E-2,-6.148507E-2,8.5587455E-3,2.6709953E-2,-1.4405473E-2],"categories":[],"categories_nodes":[],"categories_segments":[],"categories_sizes":[],"default_left":[0,0,0,0,0,0,0,0,0,0,0,0,0,0,0,0,0,0,0,0,0,0,0,0,0,0,0,0,0],"id":12,"left_children":[1,-1,3,5,7,9,-1,11,13,-1,15,-1,-1,17,19,-1,-1,21,23,25,27,-1,-1,-1,-1,-1,-1,-1,-1],"loss_changes":[3.1397614E0,0E0,2.69242E0,8.114271E0,2.5696502E0,2.941206E0,0E0,2.9682775E0,3.082321E0,0E0,1.3281479E0,0E0,0E0,4.6281877E0,6.333379E0,0E0,0E0,6.025756E0,3.847014E0,3.1504831E0,1.8661387E0,0E0,0E0,0E0,0E0,0E0,0E0,0E0,0E0],"parents":[2147483647,0,0,2,2,3,3,4,4,5,5,7,7,8,8,10,10,13,13,14,14,17,17,18,18,19,19,20,20],"right_children":[2,-1,4,6,8,10,-1,12,14,-1,16,-1,-1,18,20,-1,-1,22,24,26,28,-1,-1,-1,-1,-1,-1,-1,-1],"split_conditions":[7.360213E-4,-5.072839E-2,9.120502E-4,5.1664707E-4,-5.664597E-4,9.9763954E-1,-5.906216E-2,2.7139587E1,9.927925E-1,-1.667229E-2,-4.1596277E-4,5.8019705E-2,-1.5632328E-2,7.563393E-1,9.9975365E-1,4.120341E-3,6.438284E-2,1.8091466E-4,1.0412722E-3,1.434611E-3,1.0000795E0,-9.087306E-3,4.6080694E-2,-5.384416E-2,2.3061166E-2,-6.148507E-2,8.5587455E-3,2.6709953E-2,-1.4405473E-2],"split_indices":[4,0,4,0,6,2,0,3,2,0,0,0,0,5,1,0,0,6,0,7,1,0,0,0,0,0,0,0,0],"split_type":[0,0,0,0,0,0,0,0,0,0,0,0,0,0,0,0,0,0,0,0,0,0,0,0,0,0,0,0,0],"sum_hessian":[5.8422867E1,2.021296E0,5.6401573E1,9.671992E0,4.672958E1,8.188079E0,1.4839134E0,4.1041684E0,4.2625412E1,1.2307986E0,6.95728E0,2.3841798E0,1.7199886E0,2.415054E1,1.847487E1,1.2233789E0,5.7339015E0,1.8328999E1,5.8215423E0,9.314333E0,9.160538E0,1.0123996E1,8.205002E0,4.1152377E0,1.7063044E0,7.6176615E0,1.6966712E0,4.7151084E0,4.4454293E0],"tree_param":{"num_deleted":"0","num_feature":"8","num_nodes":"29","size_leaf_vector":"1"}},{"base_weights":[-2.1081874E-2,-4.9596544E-2,3.0023653E-2,1.2507658E-1,-4.3233803E-1,6.3118786E-1,-4.921618E-3,-8.74519E-1,-7.675404E-2,8.12493E-1,-1.8252539E-2,1.302817E-1,-6.168435E-1,-7.6013743E-3,-5.5430293E-2,3.1017756E-2,-3.9281836E-1,-1.6198337E-2,1.0450462E0,-4.939294E-2,2.6409844E-1,-5.7487696E-2,6.30635E-2,-4.2118084E-2,6.9354004E-3,6.594094E-2,1.3585135E-2,3.059048E-3,4.9547225E-2,3.556875E-2,-2.7360374E-2],"categories":[],"categories_nodes":[],"categories_segments":[],"categories_sizes":[],"default_left":[0,0,0,0,0,0,0,0,0,0,0,0,0,0,0,0,0,0,0,0,0,0,0,0,0,0,0,0,0,0,0],"id":13,"left_children":[1,-1,3,5,7,9,11,13,15,17,-1,19,21,-1,-1,-1,23,-1,25,-1,27,-1,29,-1,-1,-1,-1,-1,-1,-1,-1],"loss_changes":[2.964945E0,0E0,2.5666378E0,3.1741495E0,1.5010055E0,2.0770888E0,3.3350642E0,5.6701374E-1,1.7031982E0,2.6245747E0,0E0,5.2054267E0,2.7151296E0,0E0,0E0,0E0,1.3521873E0,0E0,1.2120132E0,0E0,4.408737E0,0E0,2.032276E0,0E0,0E0,0E0,0E0,0E0,0E0,0E0,0E0],"parents":[2147483647,0,0,2,2,3,3,4,4,5,5,6,6,7,7,8,8,9,9,11,11,12,12,16,16,18,18,20,20,22,22],"right_children":[2,-1,4,6,8,10,12,14,16,18,-1,20,22,-1,-1,-1,24,-1,26,-1,28,-1,30,-1,-1,-1,-1,-1,-1,-1,-1],"split_conditions":[7.360213E-4,-4.9596544E-2,9.053285E-4,9.120502E-4,9.979952E-1,4.580347E-4,7.575469E-1,1.8832702E-3,9.989207E-1,9.9763954E-1,-1.8252539E-2,1.0281114E-3,9.997893E-1,-7.6013743E-3,-5.5430293E-2,3.1017756E-2,9.998609E-1,-1.6198337E-2,6.2948174E-4,-4.939294E-2,6.1137134E-1,-5.7487696E-2,5.9856688E-5,-4.2118084E-2,6.9354004E-3,6.594094E-2,1.3585135E-2,3.059048E-3,4.9547225E-2,3.556875E-2,-2.7360374E-2],"split_indices":[4,0,0,4,1,0,5,4,1,2,0,4,1,0,0,0,1,0,7,0,5,0,0,0,0,0,0,0,0,0,0],"split_type":[0,0,0,0,0,0,0,0,0,0,0,0,0,0,0,0,0,0,0,0,0,0,0,0,0,0,0,0,0,0,0],"sum_hessian":[5.81579E1,1.9877253E0,5.6170177E1,4.7196865E1,8.973311E0,8.857466E0,3.83394E1,3.3491454E0,5.624166E0,7.6497326E0,1.2077335E0,3.204598E1,6.2934213E0,1.2232193E0,2.125926E0,1.4541512E0,4.170015E0,1.2326809E0,6.417052E0,2.7431023E0,2.9302877E1,3.1406991E0,3.152722E0,1.9424078E0,2.227607E0,4.2183585E0,2.1986935E0,2.3755188E1,5.5476894E0,1.448384E0,1.704338E0],"tree_param":{"num_deleted":"0","num_feature":"8","num_nodes":"31","size_leaf_vector":"1"}},{"base_weights":[-2.2082217E-2,-4.8520055E-2,2.7461603E-2,1.19230755E-1,-4.1956264E-1,4.6544634E-2,4.127501E-2,-5.8498913E-1,1.6454445E-2,1.0081289E-1,-5.187991E-2,-4.521227E-2,-5.483779E-2,4.211525E-2,5.293786E-2,-4.6663496E-1,2.5287364E-2,7.952263E-3,-3.23146E-2,-7.3034735E-3,-2.8879328E-2],"categories":[],"categories_nodes":[],"categories_segments":[],"categories_sizes":[],"default_left":[0,0,0,0,0,0,0,0,0,0,0,0,0,0,0,0,0,0,0,0,0],"id":14,"left_children":[1,-1,3,5,7,-1,9,11,-1,13,-1,15,-1,17,-1,19,-1,-1,-1,-1,-1],"loss_changes":[2.7952852E0,0E0,2.3873026E0,3.0018365E0,1.4217463E0,0E0,2.9877534E0,2.2954638E0,0E0,2.3985198E0,0E0,1.4374558E0,0E0,3.4821527E0,0E0,3.8411736E-2,0E0,0E0,0E0,0E0,0E0],"parents":[2147483647,0,0,2,2,3,3,4,4,6,6,7,7,9,9,11,11,13,13,15,15],"right_children":[2,-1,4,6,8,-1,10,12,-1,14,-1,16,-1,18,-1,20,-1,-1,-1,-1,-1],"split_conditions":[7.360213E-4,-4.8520055E-2,9.053285E-4,8.235479E-4,2.228344E-3,4.6544634E-2,9.0300214E-1,1.6208153E-3,1.6454445E-2,8.690378E-1,-5.187991E-2,9.3899085E-4,-5.483779E-2,7.575469E-1,5.293786E-2,5.4192924E1,2.5287364E-2,7.952263E-3,-3.23146E-2,-7.3034735E-3,-2.8879328E-2],"split_indices":[4,0,0,4,4,0,5,4,0,5,0,7,0,5,0,3,0,0,0,0,0],"split_type":[0,0,0,0,0,0,0,0,0,0,0,0,0,0,0,0,0,0,0,0,0],"sum_hessian":[5.792805E1,1.9532948E0,5.597476E1,4.7049328E1,8.925429E0,3.164088E0,4.388524E1,7.4891844E0,1.4362451E0,4.2449226E1,1.4360138E0,4.1745243E0,3.3146603E0,4.0982033E1,1.4671929E0,2.4520383E0,1.7224858E0,3.568901E1,5.2930217E0,1.2260896E0,1.2259487E0],"tree_param":{"num_deleted":"0","num_feature":"8","num_nodes":"21","size_leaf_vector":"1"}},{"base_weights":[-2.231865E-2,-4.410748E-2,2.982025E-2,4.901309E-2,-2.2542585E-2,3.3293083E-1,-1.4139839E-1,-2.9824972E-1,6.7850745E-1,3.5030667E-2,-5.7817614E-1,3.1325724E-2,-5.3832408E-2,-4.419143E-3,8.988229E-1,1.294841E-1,-4.4217736E-2,-9.1724145E-1,2.8499323E-1,5.7978343E-2,-1.0707988E-2,-1.04632685E-2,2.2390742E-2,2.3375532E-2,-5.9751358E-2,-3.410138E-2,5.3212132E-2],"categories":[],"categories_nodes":[],"categories_segments":[],"categories_sizes":[],"default_left":[0,0,0,0,0,0,0,0,0,0,0,0,0,0,0,0,0,0,0,0,0,0,0,0,0,0,0],"id":15,"left_children":[1,-1,3,-1,5,7,9,11,13,15,17,-1,-1,-1,19,21,-1,23,25,-1,-1,-1,-1,-1,-1,-1,-1],"loss_changes":[2.6604986E0,0E0,2.8273454E0,0E0,2.345521E0,3.2407298E0,3.2160408E0,4.722156E0,1.6518846E0,2.7615573E0,3.7702508E0,0E0,0E0,0E0,2.3724093E0,3.1685705E0,0E0,3.9609818E0,3.848712E0,0E0,0E0,0E0,0E0,0E0,0E0,0E0,0E0],"parents":[2147483647,0,0,2,2,4,4,5,5,6,6,7,7,8,8,9,9,10,10,14,14,15,15,17,17,18,18],"right_children":[2,-1,4,-1,6,8,10,12,14,16,18,-1,-1,-1,20,22,-1,24,26,-1,-1,-1,-1,-1,-1,-1,-1],"split_conditions":[7.437064E-4,-4.410748E-2,7.854422E-4,4.901309E-2,-6.160895E-4,-1.4032611E-3,1.8928922E-3,9.956955E-1,1.0281114E-3,9.0300214E-1,2.2287767E-3,3.1325724E-2,-5.3832408E-2,-4.419143E-3,2.1692014E-3,5.339664E-1,-4.4217736E-2,1.446197E-1,9.976976E-1,5.7978343E-2,-1.0707988E-2,-1.04632685E-2,2.2390742E-2,2.3375532E-2,-5.9751358E-2,-3.410138E-2,5.3212132E-2],"split_indices":[4,0,4,0,0,0,4,2,4,5,4,0,0,0,4,5,0,5,1,0,0,0,0,0,0,0,0],"split_type":[0,0,0,0,0,0,0,0,0,0,0,0,0,0,0,0,0,0,0,0,0,0,0,0,0,0,0],"sum_hessian":[5.7758747E1,2.392038E0,5.536671E1,1.9657464E0,5.3400963E1,1.2929709E1,4.0471252E1,4.6229835E0,8.306726E0,2.9482208E1,1.0989045E1,2.2020252E0,2.420958E0,1.9874609E0,6.3192654E0,2.7514643E1,1.9675657E0,7.8448377E0,3.1442077E0,5.085909E0,1.2333562E0,1.3495798E1,1.4018844E1,1.1966398E0,6.6481977E0,1.458734E0,1.6854738E0],"tree_param":{"num_deleted":"0","num_feature":"8","num_nodes":"27","size_leaf_vector":"1"}},{"base_weights":[-2.170037E-2,-4.6583567E-2,2.504639E-2,4.0280616E-1,-7.441297E-2,-9.7597755E-2,1.0476695E0,-5.599868E-2,-2.0019585E-2,2.3317853E-1,-5.0789673E-2,6.556721E-2,4.1679707E-3,7.352281E-1,-8.596572E-2,8.07236E-1,-3.487631E-2,4.7115623E-3,5.0741103E-2,4.921265E-2,-6.706885E-1,5.378387E-2,6.198257E-3,-8.755202E-3,2.5855765E-2,-5.072656E-2,1.3001128E-2],"categories":[],"categories_nodes":[],"categories_segments":[],"categories_sizes":[],"default_left":[0,0,0,0,0,0,0,0,0,0,0,0,0,0,0,0,0,0,0,0,0,0,0,0,0,0,0],"id":16,"left_children":[1,-1,3,5,7,9,11,-1,13,15,-1,-1,-1,17,19,21,-1,-1,-1,23,25,-1,-1,-1,-1,-1,-1],"loss_changes":[2.5123665E0,0E0,2.157574E0,3.960987E0,2.5748866E0,2.5596676E0,1.2408371E0,0E0,2.276046E0,4.001552E0,0E0,0E0,0E0,5.6257164E-1,3.3335502E0,6.817827E-1,0E0,0E0,0E0,3.7481077E0,2.794889E0,0E0,0E0,0E0,0E0,0E0,0E0],"parents":[2147483647,0,0,2,2,3,3,4,4,5,5,6,6,8,8,9,9,13,13,14,14,15,15,19,19,20,20],"right_children":[2,-1,4,6,8,10,12,-1,14,16,-1,-1,-1,18,20,22,-1,-1,-1,24,26,-1,-1,-1,-1,-1,-1],"split_conditions":[7.360213E-4,-4.6583567E-2,6.492404E-4,5.5164594E-4,6.590405E-4,5.1664707E-4,7.575469E-1,-5.599868E-2,6.6910475E-4,8.8325975E-4,-5.0789673E-2,6.556721E-2,4.1679707E-3,5.2723606E1,7.563393E-1,2.6208214E-5,-3.487631E-2,4.7115623E-3,5.0741103E-2,4.770459E1,1.0412722E-3,5.378387E-2,6.198257E-3,-8.755202E-3,2.5855765E-2,-5.072656E-2,1.3001128E-2],"split_indices":[4,0,7,7,7,0,5,0,7,4,0,0,0,3,5,6,0,0,0,3,0,0,0,0,0,0,0],"split_type":[0,0,0,0,0,0,0,0,0,0,0,0,0,0,0,0,0,0,0,0,0,0,0,0,0,0,0],"sum_hessian":[5.7512867E1,1.8852118E0,5.5627655E1,1.0957952E1,4.4669704E1,6.647922E0,4.31003E0,1.240194E0,4.342951E1,5.4357586E0,1.2121631E0,3.1019697E0,1.2080601E0,2.6726046E0,4.0756905E1,3.4441023E0,1.9916565E0,1.2177714E0,1.4548333E0,3.3847702E1,6.909201E0,2.060337E0,1.3837652E0,2.3302193E1,1.0545511E1,4.9795074E0,1.9296935E0],"tree_param":{"num_deleted":"0","num_feature":"8","num_nodes":"27","size_leaf_vector":"1"}},{"base_weights":[-2.1074744E-2,-4.5643482E-2,2.4298482E-2,1.10026374E-1,-3.9462313E-1,4.3937087E-2,3.7785448E-2,-8.152527E-1,-6.138917E-2,9.2862986E-2,-4.8550107E-2,-6.797474E-3,-5.2040298E-2,2.9956196E-2,-3.6339417E-1,3.679337E-2,5.064115E-2,-3.974499E-2,6.974487E-3,7.271652E-3,-3.0216957E-2],"categories":[],"categories_nodes":[],"categories_segments":[],"categories_sizes":[],"default_left":[0,0,0,0,0,0,0,0,0,0,0,0,0,0,0,0,0,0,0,0,0],"id":17,"left_children":[1,-1,3,5,7,-1,9,11,13,15,-1,-1,-1,-1,17,19,-1,-1,-1,-1,-1],"loss_changes":[2.3818855E0,0E0,2.071346E0,2.6133115E0,1.3250685E0,0E0,2.5686553E0,5.1047134E-1,1.5253656E0,2.191648E0,0E0,0E0,0E0,0E0,1.2221134E0,2.997035E0,0E0,0E0,0E0,0E0,0E0],"parents":[2147483647,0,0,2,2,3,3,4,4,6,6,7,7,8,8,9,9,14,14,15,15],"right_children":[2,-1,4,6,8,-1,10,12,14,16,-1,-1,-1,-1,18,20,-1,-1,-1,-1,-1],"split_conditions":[7.360213E-4,-4.5643482E-2,9.053285E-4,8.235479E-4,9.979952E-1,4.3937087E-2,9.0300214E-1,1.2580464E-3,9.989207E-1,8.690378E-1,-4.8550107E-2,-6.797474E-3,-5.2040298E-2,2.9956196E-2,9.998609E-1,7.575469E-1,5.064115E-2,-3.974499E-2,6.974487E-3,7.271652E-3,-3.0216957E-2],"split_indices":[4,0,0,4,1,0,5,7,1,5,0,0,0,0,1,5,0,0,0,0,0],"split_type":[0,0,0,0,0,0,0,0,0,0,0,0,0,0,0,0,0,0,0,0,0],"sum_hessian":[5.73167E1,1.8493448E0,5.5467354E1,4.6656876E1,8.81048E0,3.0489516E0,4.3607925E1,3.255141E0,5.555339E0,4.221123E1,1.3966928E0,1.2109215E0,2.0442195E0,1.4343848E0,4.120954E0,4.076659E1,1.4446431E0,1.9053569E0,2.2155972E0,3.5520767E1,5.245819E0],"tree_param":{"num_deleted":"0","num_feature":"8","num_nodes":"21","size_leaf_vector":"1"}},{"base_weights":[-2.1549698E-2,-4.1458007E-2,2.6402954E-2,4.621387E-2,-2.1777818E-2,3.1727904E-1,-1.3547166E-1,-2.9015297E-1,6.50944E-1,2.9371263E-2,-5.4642403E-1,3.0138666E-2,-5.2028973E-2,-4.930365E-3,8.690836E-1,1.1747141E-1,-4.1467723E-2,-8.7260264E-1,2.8081846E-1,5.598058E-2,-9.970547E-3,-1.0312137E-2,2.1199122E-2,2.2832692E-2,-5.7178617E-2,-3.237785E-2,5.1362157E-2],"categories":[],"categories_nodes":[],"categories_segments":[],"categories_sizes":[],"default_left":[0,0,0,0,0,0,0,0,0,0,0,0,0,0,0,0,0,0,0,0,0,0,0,0,0,0,0],"id":18,"left_children":[1,-1,3,-1,5,7,9,11,13,15,17,-1,-1,-1,19,21,-1,23,25,-1,-1,-1,-1,-1,-1,-1,-1],"loss_changes":[2.2728372E0,0E0,2.4355557E0,0E0,2.123384E0,2.9962978E0,2.8013923E0,4.381503E0,1.5979469E0,2.3893144E0,3.435004E0,0E0,0E0,0E0,2.1682396E0,2.9005358E0,0E0,3.663927E0,3.5061722E0,0E0,0E0,0E0,0E0,0E0,0E0,0E0,0E0],"parents":[2147483647,0,0,2,2,4,4,5,5,6,6,7,7,8,8,9,9,10,10,14,14,15,15,17,17,18,18],"right_children":[2,-1,4,-1,6,8,10,12,14,16,18,-1,-1,-1,20,22,-1,24,26,-1,-1,-1,-1,-1,-1,-1,-1],"split_conditions":[7.437064E-4,-4.1458007E-2,7.854422E-4,4.621387E-2,-6.160895E-4,-1.4032611E-3,1.8928922E-3,9.956955E-1,1.0281114E-3,9.0300214E-1,2.2287767E-3,3.0138666E-2,-5.2028973E-2,-4.930365E-3,2.1692014E-3,5.339664E-1,-4.1467723E-2,1.446197E-1,9.976976E-1,5.598058E-2,-9.970547E-3,-1.0312137E-2,2.1199122E-2,2.2832692E-2,-5.7178617E-2,-3.237785E-2,5.1362157E-2],"split_indices":[4,0,4,0,0,0,4,2,4,5,4,0,0,0,4,5,0,5,1,0,0,0,0,0,0,0,0],"split_type":[0,0,0,0,0,0,0,0,0,0,0,0,0,0,0,0,0,0,0,0,0,0,0,0,0,0,0],"sum_hessian":[5.7123306E1,2.288559E0,5.4834747E1,1.866576E0,5.2968174E1,1.2851597E1,4.0116577E1,4.602756E0,8.248841E0,2.929441E1,1.0822166E1,2.1916678E0,2.4110882E0,1.9829999E0,6.265841E0,2.7351511E1,1.9428997E0,7.7224145E0,3.0997517E0,5.0369873E0,1.2288537E0,1.3461551E1,1.388996E1,1.1916167E0,6.5307975E0,1.4405295E0,1.6592222E0],"tree_param":{"num_deleted":"0","num_feature":"8","num_nodes":"27","size_leaf_vector":"1"}},{"base_weights":[-2.0945152E-2,-4.394109E-2,2.1960935E-2,1.0292957E-1,-3.7569955E-1,5.5737287E-1,-1.1648287E-2,-7.7255464E-1,-6.3196816E-2,7.297085E-1,-1.7664406E-2,7.110447E-1,-1.1028153E-1,-5.0107785E-2,-5.5380906E-3,-5.0507164E-1,3.6951515E-1,-1.6555909E-2,9.583439E-1,5.5678327E-2,-6.0507297E-3,-5.581919E-1,6.746337E-2,-4.642262E-2,4.095015E-3,-1.0945753E-2,3.59258E-2,1.538214E-3,5.6966096E-2,-1.9352485E-3,-5.4937433E-2,4.63639E-2,-7.912911E-3],"categories":[],"categories_nodes":[],"categories_segments":[],"categories_sizes":[],"default_left":[0,0,0,0,0,0,0,0,0,0,0,0,0,0,0,0,0,0,0,0,0,0,0,0,0,0,0,0,0,0,0,0,0],"id":19,"left_children":[1,-1,3,5,7,9,11,13,15,17,-1,19,21,-1,-1,23,25,-1,27,-1,-1,29,31,-1,-1,-1,-1,-1,-1,-1,-1,-1,-1],"loss_changes":[2.148629E0,0E0,1.8439996E0,2.4729733E0,1.1541812E0,1.7579396E0,2.844895E0,5.247927E-1,1.4325091E0,2.3459234E0,0E0,1.7407241E0,2.8253784E0,0E0,0E0,9.822022E-1,9.519656E-1,0E0,1.1631608E0,0E0,0E0,2.7811904E0,5.1850367E0,0E0,0E0,0E0,0E0,0E0,0E0,0E0,0E0,0E0,0E0],"parents":[2147483647,0,0,2,2,3,3,4,4,5,5,6,6,7,7,8,8,9,9,11,11,12,12,15,15,16,16,18,18,21,21,22,22],"right_children":[2,-1,4,6,8,10,12,14,16,18,-1,20,22,-1,-1,24,26,-1,28,-1,-1,30,32,-1,-1,-1,-1,-1,-1,-1,-1,-1,-1],"split_conditions":[7.360213E-4,-4.394109E-2,9.053285E-4,9.120502E-4,9.979952E-1,4.580347E-4,-5.664597E-4,6.2648064E-1,9.99535E-4,9.9763954E-1,-1.7664406E-2,2.7139587E1,2.327122E-1,-5.0107785E-2,-5.5380906E-3,9.977515E-1,1.4194585E-3,-1.6555909E-2,-4.1596277E-4,5.5678327E-2,-6.0507297E-3,1.0462096E-3,-5.929618E-4,-4.642262E-2,4.095015E-3,-1.0945753E-2,3.59258E-2,1.538214E-3,5.6966096E-2,-1.9352485E-3,-5.4937433E-2,4.63639E-2,-7.912911E-3],"split_indices":[4,0,0,4,1,0,6,5,7,2,0,3,5,0,0,2,0,0,0,0,0,7,0,0,0,0,0,0,0,0,0,0,0],"split_type":[0,0,0,0,0,0,0,0,0,0,0,0,0,0,0,0,0,0,0,0,0,0,0,0,0,0,0,0,0,0,0,0,0],"sum_hessian":[5.6849422E1,1.7798635E0,5.5069557E1,4.6369343E1,8.700214E0,8.558741E0,3.78106E1,3.184273E0,5.5159416E0,7.3638864E0,1.1948545E0,3.7950459E0,3.4015556E1,1.9822506E0,1.2020224E0,2.6463404E0,2.8696012E0,1.2262188E0,6.1376677E0,2.3296938E0,1.465352E0,9.055536E0,2.496002E1,1.1994298E0,1.4469106E0,1.2071065E0,1.6624948E0,1.193014E0,4.9446535E0,5.1642146E0,3.891322E0,4.5437994E0,2.041622E1],"tree_param":{"num_deleted":"0","num_feature":"8","num_nodes":"33","size_leaf_vector":"1"}},{"base_weights":[-2.1016877E-2,-4.3107707E-2,2.067581E-2,1.01774395E-1,-3.5617974E-1,4.1702006E-2,3.3751056E-2,-7.536236E-1,-6.8216E-2,8.630164E-2,-4.62453E-2,-5.3301323E-3,-4.9000647E-2,-5.68658E-1,4.235357E-1,1.5957123E-2,8.34927E-1,-4.935729E-2,3.9733313E-3,3.6903363E-2,-8.8624945E-3,-9.687141E-3,1.4951355E-2,5.1801305E-2,1.1131808E-2],"categories":[],"categories_nodes":[],"categories_segments":[],"categories_sizes":[],"default_left":[0,0,0,0,0,0,0,0,0,0,0,0,0,0,0,0,0,0,0,0,0,0,0,0,0],"id":20,"left_children":[1,-1,3,5,7,-1,9,11,13,15,-1,-1,-1,17,19,21,23,-1,-1,-1,-1,-1,-1,-1,-1],"loss_changes":[2.0379348E0,0E0,1.743456E0,2.3002846E0,1.1061723E0,0E0,2.287089E0,5.033946E-1,1.9547589E0,2.2222636E0,0E0,0E0,0E0,1.1304494E0,9.029136E-1,2.4219353E0,2.1592355E-1,0E0,0E0,0E0,0E0,0E0,0E0,0E0,0E0],"parents":[2147483647,0,0,2,2,3,3,4,4,6,6,7,7,8,8,9,9,13,13,14,14,15,15,16,16],"right_children":[2,-1,4,6,8,-1,10,12,14,16,-1,-1,-1,18,20,22,24,-1,-1,-1,-1,-1,-1,-1,-1],"split_conditions":[7.360213E-4,-4.3107707E-2,8.852828E-4,8.235479E-4,9.979952E-1,4.1702006E-2,9.0300214E-1,1.2580464E-3,9.99535E-4,6.5675203E-4,-4.62453E-2,-5.3301323E-3,-4.9000647E-2,9.977515E-1,9.991441E-1,1.2722594E-4,1.5158431E-3,-4.935729E-2,3.9733313E-3,3.6903363E-2,-8.8624945E-3,-9.687141E-3,1.4951355E-2,5.1801305E-2,1.1131808E-2],"split_indices":[4,0,0,4,1,0,5,7,7,0,0,0,0,2,1,6,4,0,0,0,0,0,0,0,0],"split_type":[0,0,0,0,0,0,0,0,0,0,0,0,0,0,0,0,0,0,0,0,0,0,0,0,0],"sum_hessian":[5.6603397E1,1.7438084E0,5.485959E1,4.574524E1,9.114349E0,2.9311E0,4.281414E1,3.149866E0,5.9644833E0,4.1451855E1,1.3622847E0,1.1977051E0,1.9521611E0,2.8786097E0,3.0858734E0,3.8824986E1,2.626871E0,1.4313321E0,1.4472777E0,1.8754882E0,1.2103852E0,2.2484154E1,1.6340832E1,1.4564648E0,1.1704062E0],"tree_param":{"num_deleted":"0","num_feature":"8","num_nodes":"25","size_leaf_vector":"1"}},{"base_weights":[-2.0934211E-2,-3.9125E-2,2.3367792E-2,4.3703802E-2,-2.1028088E-2,3.0580884E-1,-1.3061808E-1,-2.6977134E-1,6.2065804E-1,2.408529E-2,-5.2039635E-1,2.8753925E-2,-4.9193807E-2,-4.8666946E-3,8.32201E-1,1.08161665E-1,-3.9712198E-2,-8.310567E-1,2.6811552E-1,5.3722437E-2,-9.407244E-3,-3.133231E-2,1.1336482E-2,2.1475479E-2,-5.4437906E-2,-3.083017E-2,4.914814E-2],"categories":[],"categories_nodes":[],"categories_segments":[],"categories_sizes":[],"default_left":[0,0,0,0,0,0,0,0,0,0,0,0,0,0,0,0,0,0,0,0,0,0,0,0,0,0,0],"id":21,"left_children":[1,-1,3,-1,5,7,9,11,13,15,17,-1,-1,-1,19,21,-1,23,25,-1,-1,-1,-1,-1,-1,-1,-1],"loss_changes":[1.9550992E0,0E0,2.1039684E0,0E0,1.9547327E0,2.6543622E0,2.4688897E0,3.913848E0,1.474364E0,2.1580317E0,3.0688603E0,0E0,0E0,0E0,1.9795213E0,2.598238E0,0E0,3.254393E0,3.1610262E0,0E0,0E0,0E0,0E0,0E0,0E0,0E0,0E0],"parents":[2147483647,0,0,2,2,4,4,5,5,6,6,7,7,8,8,9,9,10,10,14,14,15,15,17,17,18,18],"right_children":[2,-1,4,-1,6,8,10,12,14,16,18,-1,-1,-1,20,22,-1,24,26,-1,-1,-1,-1,-1,-1,-1,-1],"split_conditions":[7.437064E-4,-3.9125E-2,7.854422E-4,4.3703802E-2,-6.160895E-4,-1.4032611E-3,1.8928922E-3,9.956955E-1,1.0281114E-3,9.0300214E-1,2.2287767E-3,2.8753925E-2,-4.9193807E-2,-4.8666946E-3,2.1692014E-3,9.8994184E-1,-3.9712198E-2,1.446197E-1,9.976976E-1,5.3722437E-2,-9.407244E-3,-3.133231E-2,1.1336482E-2,2.1475479E-2,-5.4437906E-2,-3.083017E-2,4.914814E-2],"split_indices":[4,0,4,0,0,0,4,2,4,5,4,0,0,0,4,2,0,5,1,0,0,0,0,0,0,0,0],"split_type":[0,0,0,0,0,0,0,0,0,0,0,0,0,0,0,0,0,0,0,0,0,0,0,0,0,0,0],"sum_hessian":[5.6405975E1,2.1848495E0,5.4221127E1,1.7623811E0,5.2458748E1,1.2723172E1,3.9735573E1,4.549444E0,8.173729E0,2.9117155E1,1.0618419E1,2.1731267E0,2.3763173E0,1.9830389E0,6.1906896E0,2.7191305E1,1.9258493E0,7.578616E0,3.0398026E0,4.9600616E0,1.2306281E0,3.1825836E0,2.4008722E1,1.1731867E0,6.4054294E0,1.4199089E0,1.6198937E0],"tree_param":{"num_deleted":"0","num_feature":"8","num_nodes":"27","size_leaf_vector":"1"}},{"base_weights":[-2.0880394E-2,5.611946E-1,-7.520814E-2,5.399971E-2,-1.3692413E-2,-4.6316408E-2,-3.4704424E-2,5.017623E-1,-1.2926675E-1,-1.6990183E-1,8.690621E-1,1.4076386E-2,-5.678577E-1,2.0066584E-2,-3.5416692E-2,-3.0999116E-3,6.207765E-2,-4.335071E-1,1.3152988E-1,-8.554611E-1,4.183886E-2,1.708148E-2,-5.6729294E-2,6.0148723E-2,-1.3065075E-4,-1.2738396E-2,-5.698612E-2,-3.4600724E-2,3.549509E-2],"categories":[],"categories_nodes":[],"categories_segments":[],"categories_sizes":[],"default_left":[0,0,0,0,0,0,0,0,0,0,0,0,0,0,0,0,0,0,0,0,0,0,0,0,0,0,0,0,0],"id":22,"left_children":[1,3,5,-1,-1,-1,7,9,11,13,15,17,19,-1,-1,-1,-1,21,23,25,27,-1,-1,-1,-1,-1,-1,-1,-1],"loss_changes":[1.8482893E0,2.4591515E0,1.7990689E0,0E0,0E0,0E0,2.6898806E0,2.1111848E0,2.8236613E0,1.4069749E0,1.91816E0,1.8827962E0,1.9744751E0,0E0,0E0,0E0,0E0,4.4373217E0,4.0674644E0,1.0003576E0,2.6959925E0,0E0,0E0,0E0,0E0,0E0,0E0,0E0,0E0],"parents":[2147483647,0,0,1,1,2,2,6,6,7,7,8,8,9,9,10,10,11,11,12,12,17,17,18,18,19,19,20,20],"right_children":[2,4,6,-1,-1,-1,8,10,12,14,16,18,20,-1,-1,-1,-1,22,24,26,28,-1,-1,-1,-1,-1,-1,-1,-1],"split_conditions":[-5.664597E-4,2.7139587E1,2.4878994E1,5.399971E-2,-1.3692413E-2,-4.6316408E-2,-1.0055566E-3,1.3943133E-3,1.8928922E-3,9.092886E-4,-1.6720535E-3,-1.2413638E-4,2.228344E-3,2.0066584E-2,-3.5416692E-2,-3.0999116E-3,6.207765E-2,-2.689502E-4,-5.775574E-5,9.9784243E-1,9.9772877E-1,1.708148E-2,-5.6729294E-2,6.0148723E-2,-1.3065075E-4,-1.2738396E-2,-5.698612E-2,-3.4600724E-2,3.549509E-2],"split_indices":[6,3,3,0,0,0,0,4,4,7,0,6,4,0,0,0,0,6,6,1,1,0,0,0,0,0,0,0,0],"split_type":[0,0,0,0,0,0,0,0,0,0,0,0,0,0,0,0,0,0,0,0,0,0,0,0,0,0,0,0,0],"sum_hessian":[5.6113274E1,3.9937618E0,5.211951E1,2.2824008E0,1.7113609E0,1.3741331E0,5.0745377E1,6.9591107E0,4.3786266E1,2.6502151E0,4.3088956E0,3.3730236E1,1.005603E1,1.4094888E0,1.2407265E0,1.4694605E0,2.839435E0,6.45211E0,2.7278128E1,6.5589685E0,3.4970617E0,3.3077054E0,3.1444042E0,2.1486087E0,2.5129519E1,2.7159472E0,3.8430212E0,1.6493894E0,1.8476723E0],"tree_param":{"num_deleted":"0","num_feature":"8","num_nodes":"29","size_leaf_vector":"1"}},{"base_weights":[-2.0074109E-2,-4.16287E-2,1.965827E-2,9.719431E-2,-3.432758E-1,4.0426802E-2,3.190621E-2,-4.7022402E-1,1.36504E-2,8.1205264E-2,-4.3959085E-2,-8.177869E-2,-8.4389335E-1,1.2129724E-2,8.1818473E-1,-4.9241298E-1,2.4970127E-2,-8.443705E-3,-5.1704604E-2,-2.4103385E-3,4.8066966E-2,5.048732E-2,1.1247011E-2,-4.4878505E-2,3.6313906E-3],"categories":[],"categories_nodes":[],"categories_segments":[],"categories_sizes":[],"default_left":[0,0,0,0,0,0,0,0,0,0,0,0,0,0,0,0,0,0,0,0,0,0,0,0,0],"id":23,"left_children":[1,-1,3,5,7,-1,9,11,-1,13,-1,15,17,19,21,23,-1,-1,-1,-1,-1,-1,-1,-1,-1],"loss_changes":[1.8538586E0,0E0,1.5879091E0,2.124351E0,9.0643156E-1,0E0,2.0228226E0,1.1812592E0,0E0,2.134881E0,0E0,1.5180818E0,3.7525582E-1,2.310658E0,1.8146563E-1,8.9555275E-1,0E0,0E0,0E0,0E0,0E0,0E0,0E0,0E0,0E0],"parents":[2147483647,0,0,2,2,3,3,4,4,6,6,7,7,9,9,11,11,12,12,13,13,14,14,15,15],"right_children":[2,-1,4,6,8,-1,10,12,-1,14,-1,16,18,20,22,24,-1,-1,-1,-1,-1,-1,-1,-1,-1],"split_conditions":[7.360213E-4,-4.16287E-2,8.852828E-4,8.235479E-4,2.228344E-3,4.0426802E-2,9.0300214E-1,1.6208153E-3,1.36504E-2,6.5675203E-4,-4.3959085E-2,9.3899085E-4,1.3281243E-3,8.690378E-1,9.997829E-1,9.977515E-1,2.4970127E-2,-8.443705E-3,-5.1704604E-2,-2.4103385E-3,4.8066966E-2,5.048732E-2,1.1247011E-2,-4.4878505E-2,3.6313906E-3],"split_indices":[4,0,0,4,4,0,5,4,0,0,0,7,0,5,1,2,0,0,0,0,0,0,0,0,0],"split_type":[0,0,0,0,0,0,0,0,0,0,0,0,0,0,0,0,0,0,0,0,0,0,0,0,0],"sum_hessian":[5.5919037E1,1.67672E0,5.4242317E1,4.529734E1,8.944977E0,2.8509455E0,4.2446396E1,7.6136436E0,1.331333E0,4.113163E1,1.3147665E0,4.3306255E0,3.2830184E0,3.853617E1,2.5954561E0,2.6271484E0,1.7034771E0,1.1367064E0,2.146312E0,3.7125504E1,1.4106684E0,1.43123E0,1.164226E0,1.1873008E0,1.4398476E0],"tree_param":{"num_deleted":"0","num_feature":"8","num_nodes":"25","size_leaf_vector":"1"}},{"base_weights":[-1.915156E-2,-3.7616253E-2,2.307423E-2,4.2092633E-2,-1.8958267E-2,5.478506E-1,-7.592579E-2,5.2683275E-2,-1.2953778E-2,-4.3562254E-1,3.8138792E-2,1.3707342E-2,-5.2463125E-2,8.1336004E-1,-1.0879074E-1,2.2903828E-2,-2.7049446E-2,6.089009E-2,1.1823756E-2,2.4254296E-2,-1.120286E-2],"categories":[],"categories_nodes":[],"categories_segments":[],"categories_sizes":[],"default_left":[0,0,0,0,0,0,0,0,0,0,0,0,0,0,0,0,0,0,0,0,0],"id":24,"left_children":[1,-1,3,-1,5,7,9,-1,-1,11,13,15,-1,17,19,-1,-1,-1,-1,-1,-1],"loss_changes":[1.7740136E0,0E0,1.8957889E0,0E0,1.7507782E0,2.2957554E0,2.0260684E0,0E0,0E0,3.2879083E0,4.4286976E0,2.1805112E0,0E0,1.156085E0,2.3618653E0,0E0,0E0,0E0,0E0,0E0,0E0],"parents":[2147483647,0,0,2,2,4,4,5,5,6,6,9,9,10,10,11,11,13,13,14,14],"right_children":[2,-1,4,-1,6,8,10,-1,-1,12,14,16,-1,18,20,-1,-1,-1,-1,-1,-1],"split_conditions":[7.437064E-4,-3.7616253E-2,7.854422E-4,4.2092633E-2,-5.664597E-4,2.7139587E1,2.327122E-1,5.2683275E-2,-1.2953778E-2,1.1052258E-3,-5.929618E-4,8.621283E-2,-5.2463125E-2,4.083467E-1,4.104762E1,2.2903828E-2,-2.7049446E-2,6.089009E-2,1.1823756E-2,2.4254296E-2,-1.120286E-2],"split_indices":[4,0,4,0,6,3,5,0,0,7,0,5,0,5,3,0,0,0,0,0,0],"split_type":[0,0,0,0,0,0,0,0,0,0,0,0,0,0,0,0,0,0,0,0,0],"sum_hessian":[5.574162E1,2.1197267E0,5.3621895E1,1.689154E0,5.193274E1,3.9558995E0,4.797684E1,2.2436862E0,1.7122132E0,1.0872353E1,3.710449E1,6.840874E0,4.031479E0,5.189297E0,3.191519E1,3.894867E0,2.9460073E0,2.3974793E0,2.7918177E0,4.6660976E0,2.7249092E1],"tree_param":{"num_deleted":"0","num_feature":"8","num_nodes":"21","size_leaf_vector":"1"}},{"base_weights":[-1.6925974E-2,-4.021221E-2,2.0755837E-2,-5.671007E-1,6.7880765E-2,1.6637739E-2,-5.885471E-2,1.9663346E-1,-2.1796902E-1,3.618776E-1,-2.023759E-1,3.2589834E-2,-3.6645377E-1,7.857453E-1,1.8027842E-1,-4.4727637E-3,-5.003813E-2,2.1772033E-2,-4.6537507E-1,5.031692E-2,7.21758E-3,-2.5294614E-3,4.8932046E-2,2.9424528E-2,-2.1797499E-2,-4.456243E-2,-9.207274E-3],"categories":[],"categories_nodes":[],"categories_segments":[],"categories_sizes":[],"default_left":[0,0,0,0,0,0,0,0,0,0,0,0,0,0,0,0,0,0,0,0,0,0,0,0,0,0,0],"id":25,"left_children":[1,-1,3,5,7,-1,-1,9,11,13,15,-1,17,19,21,23,-1,-1,25,-1,-1,-1,-1,-1,-1,-1,-1],"loss_changes":[1.6950712E0,0E0,1.561138E0,2.6894112E0,1.948482E0,0E0,0E0,2.4616346E0,2.3766956E0,1.8577006E0,1.7730179E0,0E0,1.3750409E0,9.1486835E-1,3.6402764E0,2.8200617E0,0E0,0E0,1.4695375E0,0E0,0E0,0E0,0E0,0E0,0E0,0E0,0E0],"parents":[2147483647,0,0,2,2,3,3,4,4,7,7,8,8,9,9,10,10,12,12,13,13,14,14,15,15,18,18],"right_children":[2,-1,4,6,8,-1,-1,10,12,14,16,-1,18,20,22,24,-1,-1,26,-1,-1,-1,-1,-1,-1,-1,-1],"split_conditions":[7.360213E-4,-4.021221E-2,9.8976386E-1,4.104762E1,1.2641244E-3,1.6637739E-2,-5.885471E-2,9.9907786E-1,9.910188E-1,-3.7284027E-4,1.1052258E-3,3.2589834E-2,-7.2068884E-4,5.077071E-1,9.9790555E-1,3.8385245E-1,-5.003813E-2,2.1772033E-2,1.3504365E-3,5.031692E-2,7.21758E-3,-2.5294614E-3,4.8932046E-2,2.9424528E-2,-2.1797499E-2,-4.456243E-2,-9.207274E-3],"split_indices":[4,0,2,3,7,0,0,2,2,0,7,0,6,5,2,5,0,0,7,0,0,0,0,0,0,0,0],"split_type":[0,0,0,0,0,0,0,0,0,0,0,0,0,0,0,0,0,0,0,0,0,0,0,0,0,0,0],"sum_hessian":[5.557282E1,1.6091175E0,5.39637E1,3.1860137E0,5.0777687E1,1.4708002E0,1.7152135E0,3.522412E1,1.5553567E1,2.4974388E1,1.0249732E1,1.7737836E0,1.3779783E1,6.49281E0,1.8481577E1,9.019573E0,1.2301588E0,1.1396276E0,1.2640156E1,4.4078436E0,2.0849662E0,1.5062493E1,3.4190848E0,3.6456258E0,5.3739476E0,4.164551E0,8.475605E0],"tree_param":{"num_deleted":"0","num_feature":"8","num_nodes":"27","size_leaf_vector":"1"}},{"base_weights":[-1.6478041E-2,-3.9509743E-2,2.0173933E-2,-5.503936E-1,6.592404E-2,1.615282E-2,-5.7208832E-2,1.8916488E-1,-2.0759007E-1,3.4926227E-1,-1.9621229E-1,3.1603236E-2,-3.5121635E-1,1.0113241E-1,6.4167404E-1,-3.4644802E-3,-4.8821144E-2,2.124733E-2,-4.4713283E-1,2.0409625E-2,-2.8400583E-2,3.8495835E-2,-1.37333395E-2,2.1638451E-2,-2.9708019E-2,-5.4452445E-2,-1.2754666E-2],"categories":[],"categories_nodes":[],"categories_segments":[],"categories_sizes":[],"default_left":[0,0,0,0,0,0,0,0,0,0,0,0,0,0,0,0,0,0,0,0,0,0,0,0,0,0,0],"id":26,"left_children":[1,-1,3,5,7,-1,-1,9,11,13,15,-1,17,19,21,23,-1,-1,25,-1,-1,-1,-1,-1,-1,-1,-1],"loss_changes":[1.614534E0,0E0,1.4666749E0,2.534752E0,1.7793564E0,0E0,0E0,2.2964673E0,2.2132545E0,1.8122559E0,1.6867435E0,0E0,1.2875582E0,3.3514016E0,1.5850954E0,2.8380337E0,0E0,0E0,1.3997583E0,0E0,0E0,0E0,0E0,0E0,0E0,0E0,0E0],"parents":[2147483647,0,0,2,2,3,3,4,4,7,7,8,8,9,9,10,10,12,12,13,13,14,14,15,15,18,18],"right_children":[2,-1,4,6,8,-1,-1,10,12,14,16,-1,18,20,22,24,-1,-1,26,-1,-1,-1,-1,-1,-1,-1,-1],"split_conditions":[7.360213E-4,-3.9509743E-2,9.8976386E-1,4.104762E1,1.2641244E-3,1.615282E-2,-5.7208832E-2,9.9907786E-1,9.910188E-1,9.9913424E-1,1.1052258E-3,3.1603236E-2,-7.2068884E-4,5.7984497E1,9.0300214E-1,1.0000795E0,-4.8821144E-2,2.124733E-2,2.8788818E-2,2.0409625E-2,-2.8400583E-2,3.8495835E-2,-1.37333395E-2,2.1638451E-2,-2.9708019E-2,-5.4452445E-2,-1.2754666E-2],"split_indices":[4,0,2,3,7,0,0,2,2,1,7,0,6,3,5,1,0,0,5,0,0,0,0,0,0,0,0],"split_type":[0,0,0,0,0,0,0,0,0,0,0,0,0,0,0,0,0,0,0,0,0,0,0,0,0,0,0],"sum_hessian":[5.5371338E1,1.5745004E0,5.3796837E1,3.1746092E0,5.0622227E1,1.469266E0,1.7053432E0,3.5110447E1,1.5511783E1,2.4871698E1,1.0238747E1,1.7690375E0,1.3742744E1,1.4182667E1,1.0689033E1,9.015857E0,1.2228899E0,1.1342152E0,1.2608529E1,9.9888935E0,4.1937737E0,9.516923E0,1.1721089E0,5.3397603E0,3.676097E0,1.8278276E0,1.0780702E1],"tree_param":{"num_deleted":"0","num_feature":"8","num_nodes":"27","size_leaf_vector":"1"}},{"base_weights":[-1.8114036E-2,5.2627134E-1,-6.87059E-2,5.0909813E-2,-1.2316834E-2,-4.3932598E-2,-3.0694446E-2,4.6995574E-1,-1.1881287E-1,-1.756666E-1,8.279393E-1,1.5398041E-2,-5.30405E-1,1.8809285E-2,-3.4183223E-2,-2.7882939E-3,5.909164E-2,-4.188051E-1,1.291614E-1,-8.075572E-1,5.1690765E-2,3.6133964E-2,-4.065801E-2,5.7554096E-2,6.250211E-5,-1.1155613E-2,-5.4476567E-2,-3.2916587E-2,3.4755077E-2],"categories":[],"categories_nodes":[],"categories_segments":[],"categories_sizes":[],"default_left":[0,0,0,0,0,0,0,0,0,0,0,0,0,0,0,0,0,0,0,0,0,0,0,0,0,0,0,0,0],"id":27,"left_children":[1,3,5,-1,-1,-1,7,9,11,13,15,17,19,-1,-1,-1,-1,21,23,25,27,-1,-1,-1,-1,-1,-1,-1,-1],"loss_changes":[1.582698E0,2.1094391E0,1.5820594E0,0E0,0E0,0E0,2.3038495E0,1.9547125E0,2.4458082E0,1.2712476E0,1.6955619E0,1.7458678E0,1.7968655E0,0E0,0E0,0E0,0E0,3.894517E0,3.6458826E0,9.813986E-1,2.49004E0,0E0,0E0,0E0,0E0,0E0,0E0,0E0,0E0],"parents":[2147483647,0,0,1,1,2,2,6,6,7,7,8,8,9,9,10,10,11,11,12,12,17,17,18,18,19,19,20,20],"right_children":[2,4,6,-1,-1,-1,8,10,12,14,16,18,20,-1,-1,-1,-1,22,24,26,28,-1,-1,-1,-1,-1,-1,-1,-1],"split_conditions":[-5.664597E-4,2.7139587E1,2.4878994E1,5.0909813E-2,-1.2316834E-2,-4.3932598E-2,-1.0055566E-3,1.3943133E-3,1.8928922E-3,9.092886E-4,-1.6720535E-3,-1.2413638E-4,2.228344E-3,1.8809285E-2,-3.4183223E-2,-2.7882939E-3,5.909164E-2,-3.7367558E-4,-5.775574E-5,9.9784243E-1,9.9772877E-1,3.6133964E-2,-4.065801E-2,5.7554096E-2,6.250211E-5,-1.1155613E-2,-5.4476567E-2,-3.2916587E-2,3.4755077E-2],"split_indices":[6,3,3,0,0,0,0,4,4,7,0,6,4,0,0,0,0,6,6,1,1,0,0,0,0,0,0,0,0],"split_type":[0,0,0,0,0,0,0,0,0,0,0,0,0,0,0,0,0,0,0,0,0,0,0,0,0,0,0,0,0],"sum_hessian":[5.5153137E1,3.8902671E0,5.126287E1,2.1826744E0,1.7075927E0,1.3065935E0,4.9956276E1,6.828202E0,4.3128075E1,2.6172633E0,4.2109385E0,3.3248936E1,9.87914E0,1.3788518E0,1.2384114E0,1.4450171E0,2.7659214E0,6.3461337E0,2.69028E1,6.430208E0,3.4489315E0,1.4157115E0,4.9304223E0,2.1029189E0,2.4799881E1,2.675655E0,3.754553E0,1.6285686E0,1.8203629E0],"tree_param":{"num_deleted":"0","num_feature":"8","num_nodes":"29","size_leaf_vector":"1"}},{"base_weights":[-1.680688E-2,-3.8867194E-2,1.904777E-2,9.3708515E-2,-3.302317E-1,3.8483083E-2,3.2992184E-2,-6.8330383E-1,-7.4044265E-2,8.017595E-2,-4.2297464E-2,-4.590339E-2,-3.1001172E-3,-3.8237065E-1,2.931281E-2,1.2426401E-2,8.006566E-1,6.9833726E-2,-4.7195192E-2,-9.593726E-3,1.4365114E-2,4.909934E-2,1.0931709E-2,-2.0026868E-2,2.9815206E-2],"categories":[],"categories_nodes":[],"categories_segments":[],"categories_sizes":[],"default_left":[0,0,0,0,0,0,0,0,0,0,0,0,0,0,0,0,0,0,0,0,0,0,0,0,0],"id":28,"left_children":[1,-1,3,5,7,-1,9,11,13,15,-1,-1,-1,17,-1,19,21,23,-1,-1,-1,-1,-1,-1,-1],"loss_changes":[1.5401037E0,0E0,1.4493883E0,1.8458107E0,8.358729E-1,0E0,1.8461372E0,5.2642894E-1,1.6087558E0,2.0210729E0,0E0,0E0,0E0,1.3968413E0,0E0,2.2479765E0,1.6108155E-1,1.1883848E0,0E0,0E0,0E0,0E0,0E0,0E0,0E0],"parents":[2147483647,0,0,2,2,3,3,4,4,6,6,7,7,8,8,9,9,13,13,15,15,16,16,17,17],"right_children":[2,-1,4,6,8,-1,10,12,14,16,-1,-1,-1,18,-1,20,22,24,-1,-1,-1,-1,-1,-1,-1],"split_conditions":[7.360213E-4,-3.8867194E-2,8.852828E-4,8.235479E-4,9.979952E-1,3.8483083E-2,9.0300214E-1,6.2648064E-1,1.8691405E-3,6.5675203E-4,-4.2297464E-2,-4.590339E-2,-3.1001172E-3,1.1957E-4,2.931281E-2,1.2722594E-4,1.5158431E-3,9.977515E-1,-4.7195192E-2,-9.593726E-3,1.4365114E-2,4.909934E-2,1.0931709E-2,-2.0026868E-2,2.9815206E-2],"split_indices":[4,0,0,4,1,0,5,5,4,0,0,0,0,6,0,6,4,2,0,0,0,0,0,0,0],"split_type":[0,0,0,0,0,0,0,0,0,0,0,0,0,0,0,0,0,0,0,0,0,0,0,0,0],"sum_hessian":[5.493564E1,1.5422173E0,5.339342E1,4.4593075E1,8.800349E0,2.712998E0,4.1880077E1,2.9994152E0,5.800934E0,4.060887E1,1.2712042E0,1.8302048E0,1.1692104E0,4.2413535E0,1.5595801E0,3.8048294E1,2.560579E0,2.834422E0,1.4069315E0,2.1999311E1,1.6048983E1,1.42837E0,1.132209E0,1.6232996E0,1.2111226E0],"tree_param":{"num_deleted":"0","num_feature":"8","num_nodes":"25","size_leaf_vector":"1"}},{"base_weights":[-1.6663006E-2,5.14794E-1,-6.6083886E-2,4.9891155E-2,-1.1795061E-2,-1.0418626E-1,3.3272047E-2,-5.836685E-2,-4.1822273E-2,3.0659962E-1,-1.545518E-1,-2.7486998E-1,9.382951E-1,5.0078135E-2,-4.2637664E-1,2.0745339E-2,-3.2677904E-2,5.915702E-2,1.9066756E-3,-3.191821E-2,1.394331E-2,-3.5592716E-2,1.0057789E-2],"categories":[],"categories_nodes":[],"categories_segments":[],"categories_sizes":[],"default_left":[0,0,0,0,0,0,0,0,0,0,0,0,0,0,0,0,0,0,0,0,0,0,0],"id":29,"left_children":[1,3,5,-1,-1,7,-1,9,-1,11,13,15,17,19,21,-1,-1,-1,-1,-1,-1,-1,-1],"loss_changes":[1.4977757E0,1.9959441E0,1.5152295E0,0E0,0E0,1.6345108E0,0E0,1.7426355E0,0E0,4.0807586E0,2.1842272E0,1.8887599E0,1.1042595E0,3.8131201E0,3.1537976E0,0E0,0E0,0E0,0E0,0E0,0E0,0E0,0E0],"parents":[2147483647,0,0,1,1,2,2,5,5,7,7,9,9,10,10,11,11,12,12,13,13,14,14],"right_children":[2,4,6,-1,-1,8,-1,10,-1,12,14,16,18,20,22,-1,-1,-1,-1,-1,-1,-1,-1],"split_conditions":[-5.664597E-4,2.7139587E1,1.0013801E0,4.9891155E-2,-1.1795061E-2,1.0010831E0,3.3272047E-2,6.492404E-4,-4.1822273E-2,9.978889E-1,9.927925E-1,2.6208214E-5,7.575469E-1,1.4569594E-3,9.998609E-1,2.0745339E-2,-3.2677904E-2,5.915702E-2,1.9066756E-3,-3.191821E-2,1.394331E-2,-3.5592716E-2,1.0057789E-2],"split_indices":[6,3,1,0,0,1,0,7,0,2,2,6,5,4,1,0,0,0,0,0,0,0,0],"split_type":[0,0,0,0,0,0,0,0,0,0,0,0,0,0,0,0,0,0,0,0,0,0,0],"sum_hessian":[5.473014E1,3.8552654E0,5.0874874E1,2.1455371E0,1.7097284E0,4.9171303E1,1.7035717E0,4.7291836E1,1.8794682E0,9.407643E0,3.7884193E1,5.192691E0,4.214952E0,2.207893E1,1.5805263E1,1.8065093E0,3.3861816E0,3.0664964E0,1.1484557E0,5.0606914E0,1.7018238E1,1.0770957E1,5.034305E0],"tree_param":{"num_deleted":"0","num_feature":"8","num_nodes":"23","size_leaf_vector":"1"}},{"base_weights":[-1.5219974E-2,-3.7590105E-2,1.8812573E-2,9.088508E-2,-3.2046175E-1,1.5774229E-1,-4.596016E-1,-6.363295E-1,-4.8015535E-2,3.136965E-2,5.414554E-1,-3.5743818E-2,-4.492874E-2,-4.731502E-2,-2.3325672E-3,-3.675494E-1,3.8669724E-2,1.1344459E-1,-5.583703E-2,7.3995644E-1,-1.5423111E-2,1.8207423E-2,-2.2236347E-2,7.171017E-2,-4.5852304E-2,1.2313102E-3,4.973395E-2,6.054306E-2,9.801718E-3,-1.9215237E-2,2.9004319E-2],"categories":[],"categories_nodes":[],"categories_segments":[],"categories_sizes":[],"default_left":[0,0,0,0,0,0,0,0,0,0,0,0,0,0,0,0,0,0,0,0,0,0,0,0,0,0,0,0,0,0,0],"id":30,"left_children":[1,-1,3,5,7,9,11,13,15,17,19,21,-1,-1,-1,23,-1,25,-1,27,-1,-1,-1,29,-1,-1,-1,-1,-1,-1,-1],"loss_changes":[1.4061486E0,0E0,1.3508464E0,1.7419765E0,8.034773E-1,1.9805099E0,9.2946315E-1,7.612946E-1,1.9338938E0,3.1467195E0,1.9396443E0,7.62291E-1,0E0,0E0,0E0,1.3215518E0,0E0,2.3876824E0,0E0,1.9443016E0,0E0,0E0,0E0,1.1082464E0,0E0,0E0,0E0,0E0,0E0,0E0,0E0],"parents":[2147483647,0,0,2,2,3,3,4,4,5,5,6,6,7,7,8,8,9,9,10,10,11,11,15,15,17,17,19,19,23,23],"right_children":[2,-1,4,6,8,10,12,14,16,18,20,22,-1,-1,-1,24,-1,26,-1,28,-1,-1,-1,30,-1,-1,-1,-1,-1,-1,-1],"split_conditions":[7.360213E-4,-3.7590105E-2,8.852828E-4,5.112269E-4,9.980922E-1,2.1209565E-4,-1.9511698E-4,1.8091466E-4,1.8691405E-3,2.0364481E-4,9.980151E-1,6.3780357E1,-4.492874E-2,-4.731502E-2,-2.3325672E-3,1.1957E-4,3.8669724E-2,1.7058103E-4,-5.583703E-2,3.0511027E-4,-1.5423111E-2,1.8207423E-2,-2.2236347E-2,9.977515E-1,-4.5852304E-2,1.2313102E-3,4.973395E-2,6.054306E-2,9.801718E-3,-1.9215237E-2,2.9004319E-2],"split_indices":[4,0,0,6,1,6,0,6,4,6,2,3,0,0,0,6,0,6,0,6,0,0,0,2,0,0,0,0,0,0,0],"split_type":[0,0,0,0,0,0,0,0,0,0,0,0,0,0,0,0,0,0,0,0,0,0,0,0,0,0,0,0,0,0,0],"sum_hessian":[5.452969E1,1.4767625E0,5.305293E1,4.4361313E1,8.691614E0,4.019325E1,4.1680646E0,3.406539E0,5.2850757E0,3.104921E1,9.144039E0,2.6707268E0,1.4973378E0,1.8364264E0,1.5701127E0,4.202726E0,1.0823495E0,2.9818748E1,1.2304621E0,7.517647E0,1.6263924E0,1.4057997E0,1.2649271E0,2.818865E0,1.383861E0,2.8022358E1,1.796389E0,3.3720775E0,4.14557E0,1.6146098E0,1.2042553E0],"tree_param":{"num_deleted":"0","num_feature":"8","num_nodes":"31","size_leaf_vector":"1"}},{"base_weights":[-1.6025653E-2,5.0174755E-1,-6.409563E-2,4.873907E-2,-1.1240386E-2,-1.0129358E-1,3.253817E-2,-5.7079453E-2,-4.049208E-2,2.9741222E-1,-1.4988932E-1,-2.6504537E-1,9.093773E-1,-5.379284E-1,-1.9216407E-2,2.2877714E-2,-3.0712068E-2,5.7507318E-2,1.8273892E-3,-4.2573087E-2,7.5601633E-3,2.9823503E-2,-8.481043E-3],"categories":[],"categories_nodes":[],"categories_segments":[],"categories_sizes":[],"default_left":[0,0,0,0,0,0,0,0,0,0,0,0,0,0,0,0,0,0,0,0,0,0,0],"id":31,"left_children":[1,3,5,-1,-1,7,-1,9,-1,11,13,15,17,19,21,-1,-1,-1,-1,-1,-1,-1,-1],"loss_changes":[1.4082739E0,1.8723519E0,1.4348115E0,0E0,0E0,1.513841E0,0E0,1.6221163E0,0E0,3.7808092E0,1.9502201E0,1.8285956E0,1.0404282E0,2.2253094E0,2.875683E0,0E0,0E0,0E0,0E0,0E0,0E0,0E0,0E0],"parents":[2147483647,0,0,1,1,2,2,5,5,7,7,9,9,10,10,11,11,12,12,13,13,14,14],"right_children":[2,4,6,-1,-1,8,-1,10,-1,12,14,16,18,20,22,-1,-1,-1,-1,-1,-1,-1,-1],"split_conditions":[-5.664597E-4,2.7139587E1,1.0013801E0,4.873907E-2,-1.1240386E-2,1.0010831E0,3.253817E-2,6.492404E-4,-4.049208E-2,9.978889E-1,2.327122E-1,-4.1332276E-4,7.575469E-1,9.997138E-1,4.104762E1,2.2877714E-2,-3.0712068E-2,5.7507318E-2,1.8273892E-3,-4.2573087E-2,7.5601633E-3,2.9823503E-2,-8.481043E-3],"split_indices":[6,3,1,0,0,1,0,7,0,2,5,0,5,1,3,0,0,0,0,0,0,0,0],"split_type":[0,0,0,0,0,0,0,0,0,0,0,0,0,0,0,0,0,0,0,0,0,0,0],"sum_hessian":[5.4289276E1,3.810255E0,5.047902E1,2.1008317E0,1.7094233E0,4.8798096E1,1.6809236E0,4.694899E1,1.8491069E0,9.283955E0,3.7665035E1,5.1330547E0,4.1509004E0,8.703374E0,2.8961662E1,1.5712731E0,3.5617814E0,3.0044143E0,1.146486E0,5.819931E0,2.883443E0,5.103699E0,2.3857962E1],"tree_param":{"num_deleted":"0","num_feature":"8","num_nodes":"23","size_leaf_vector":"1"}},{"base_weights":[-1.4012489E-2,-3.6691383E-2,1.8818183E-2,8.859863E-2,-3.1081426E-1,3.698168E-2,3.1283367E-2,-6.196714E-1,-4.4404536E-2,7.6602116E-2,-4.0867276E-2,-4.6297695E-2,-2.159479E-3,-3.5679832E-1,3.7928265E-2,-5.733743E-1,1.4121588E-1,7.176881E-2,-4.4785913E-2,1.1805093E-2,-5.6812227E-2,4.2295735E-2,2.333682E-3,-1.8692233E-2,2.8290078E-2],"categories":[],"categories_nodes":[],"categories_segments":[],"categories_sizes":[],"default_left":[0,0,0,0,0,0,0,0,0,0,0,0,0,0,0,0,0,0,0,0,0,0,0,0,0],"id":32,"left_children":[1,-1,3,5,7,-1,9,11,13,15,-1,-1,-1,17,-1,19,21,23,-1,-1,-1,-1,-1,-1,-1],"loss_changes":[1.3164403E0,0E0,1.2625566E0,1.6593536E0,7.6257956E-1,0E0,1.6965549E0,7.315434E-1,1.8340484E0,1.8131988E0,0E0,0E0,0E0,1.2576811E0,0E0,2.0575829E0,2.5134737E0,1.0489675E0,0E0,0E0,0E0,0E0,0E0,0E0,0E0],"parents":[2147483647,0,0,2,2,3,3,4,4,6,6,7,7,8,8,9,9,13,13,15,15,16,16,17,17],"right_children":[2,-1,4,6,8,-1,10,12,14,16,-1,-1,-1,18,-1,20,22,24,-1,-1,-1,-1,-1,-1,-1],"split_conditions":[7.360213E-4,-3.6691383E-2,8.852828E-4,8.235479E-4,9.980922E-1,3.698168E-2,9.0300214E-1,1.8091466E-4,1.8691405E-3,5.369318E-4,-4.0867276E-2,-4.6297695E-2,-2.159479E-3,1.1957E-4,3.7928265E-2,4.3968433E1,6.492404E-4,9.977515E-1,-4.4785913E-2,1.1805093E-2,-5.6812227E-2,4.2295735E-2,2.333682E-3,-1.8692233E-2,2.8290078E-2],"split_indices":[4,0,0,4,1,0,5,6,4,7,0,0,0,6,0,3,7,2,0,0,0,0,0,0,0],"split_type":[0,0,0,0,0,0,0,0,0,0,0,0,0,0,0,0,0,0,0,0,0,0,0,0,0],"sum_hessian":[5.4121456E1,1.4294196E0,5.2692036E1,4.408981E1,8.602226E0,2.6042218E0,4.1485588E1,3.3696623E0,5.232564E0,4.024609E1,1.2395002E0,1.8046458E0,1.5650166E0,4.167038E0,1.065526E0,2.9271193E0,3.731897E1,2.8040178E0,1.3630202E0,1.4386724E0,1.4884468E0,3.4743538E0,3.3844616E1,1.6021613E0,1.2018565E0],"tree_param":{"num_deleted":"0","num_feature":"8","num_nodes":"25","size_leaf_vector":"1"}},{"base_weights":[-1.4952649E-2,4.8869923E-1,-6.15717E-2,4.7625743E-2,-1.0740942E-2,-9.76756E-2,3.1755537E-2,-2.3229124E-1,1.145855E-1,-2.5797991E-2,-5.753938E-1,3.120948E-1,-3.4547535E-1,2.5906894E-1,-4.8921716E-1,-1.021269E0,-2.1866988E-1,4.407532E-1,-2.483907E-2,1.363982E-2,-6.176888E-1,1.8942995E-2,-2.7348181E-2,-4.4262227E-2,2.0273898E-2,-6.172359E-2,-1.2330362E-2,2.1794355E-2,-2.4970774E-2,-2.4384682E-3,2.8920535E-2,-4.7500204E-2,-1.5705692E-3],"categories":[],"categories_nodes":[],"categories_segments":[],"categories_sizes":[],"default_left":[0,0,0,0,0,0,0,0,0,0,0,0,0,0,0,0,0,0,0,0,0,0,0,0,0,0,0,0,0,0,0,0,0],"id":33,"left_children":[1,3,5,-1,-1,7,-1,9,11,13,15,17,19,21,23,25,27,29,-1,-1,31,-1,-1,-1,-1,-1,-1,-1,-1,-1,-1,-1,-1],"loss_changes":[1.3191953E0,1.7588848E0,1.3483449E0,0E0,0E0,1.4406312E0,0E0,2.1539822E0,1.9137335E0,2.787801E0,1.5985887E0,1.7206959E0,1.2530637E0,1.475723E0,3.200645E0,4.9142456E-1,1.6209015E0,9.028754E-1,0E0,0E0,9.0155184E-1,0E0,0E0,0E0,0E0,0E0,0E0,0E0,0E0,0E0,0E0,0E0,0E0],"parents":[2147483647,0,0,1,1,2,2,5,5,7,7,8,8,9,9,10,10,11,11,12,12,13,13,14,14,15,15,16,16,17,17,20,20],"right_children":[2,4,6,-1,-1,8,-1,10,12,14,16,18,20,22,24,26,28,30,-1,-1,32,-1,-1,-1,-1,-1,-1,-1,-1,-1,-1,-1,-1],"split_conditions":[-5.664597E-4,2.7139587E1,1.0013801E0,4.7625743E-2,-1.0740942E-2,1.8148428E-4,3.1755537E-2,4.083467E-1,5.112269E-4,1.1052258E-3,9.977599E-1,9.982759E-1,1.8721904E-3,1.0009921E0,-7.895015E-5,1.6754051E-3,9.986533E-1,-3.1860298E-4,-2.483907E-2,1.363982E-2,2.22414E-3,1.8942995E-2,-2.7348181E-2,-4.4262227E-2,2.0273898E-2,-6.172359E-2,-1.2330362E-2,2.1794355E-2,-2.4970774E-2,-2.4384682E-3,2.8920535E-2,-4.7500204E-2,-1.5705692E-3],"split_indices":[6,3,1,0,0,6,0,5,6,7,2,2,4,1,6,4,2,0,0,0,4,0,0,0,0,0,0,0,0,0,0,0,0],"split_type":[0,0,0,0,0,0,0,0,0,0,0,0,0,0,0,0,0,0,0,0,0,0,0,0,0,0,0,0,0,0,0,0,0],"sum_hessian":[5.390279E1,3.7632678E0,5.0139523E1,2.0547082E0,1.7085595E0,4.848662E1,1.6529039E0,2.9612228E1,1.8874392E1,1.915759E1,1.0454637E1,1.3430254E1,5.444137E0,1.2137531E1,7.020061E0,3.818686E0,6.635951E0,1.1979863E1,1.4503908E0,1.66357E0,3.7805672E0,1.102847E1,1.1090604E0,4.8734446E0,2.146616E0,2.5290713E0,1.2896146E0,1.8260108E0,4.8099403E0,2.7711437E0,9.20872E0,2.016927E0,1.7636402E0],"tree_param":{"num_deleted":"0","num_feature":"8","num_nodes":"33","size_leaf_vector":"1"}},{"base_weights":[-1.5658733E-2,4.7629097E-1,-6.0984842E-2,4.6668183E-2,-1.0400842E-2,-4.032836E-2,-2.6395286E-2,4.6757397E-1,-1.1435634E-1,-1.550746E-1,8.110721E-1,1.1694673E-2,-5.030152E-1,1.880979E-2,-3.2036606E-2,-2.2365614E-3,5.7616305E-2,-3.9804974E-1,1.1978835E-1,-7.5481457E-1,2.8630607E-2,3.5639748E-2,-3.9080188E-2,5.386358E-2,-7.585062E-6,-8.725698E-3,-5.2099705E-2,-3.2039225E-2,3.2465145E-2],"categories":[],"categories_nodes":[],"categories_segments":[],"categories_sizes":[],"default_left":[0,0,0,0,0,0,0,0,0,0,0,0,0,0,0,0,0,0,0,0,0,0,0,0,0,0,0,0,0],"id":34,"left_children":[1,3,5,-1,-1,-1,7,9,11,13,15,17,19,-1,-1,-1,-1,21,23,25,27,-1,-1,-1,-1,-1,-1,-1,-1],"loss_changes":[1.2472576E0,1.6712465E0,1.2916548E0,0E0,0E0,0E0,2.2123728E0,1.7741175E0,2.1115136E0,1.1646216E0,1.5489655E0,1.5283964E0,1.433708E0,0E0,0E0,0E0,0E0,3.6290205E0,3.1263318E0,1.0171585E0,2.2249794E0,0E0,0E0,0E0,0E0,0E0,0E0,0E0,0E0],"parents":[2147483647,0,0,1,1,2,2,6,6,7,7,8,8,9,9,10,10,11,11,12,12,17,17,18,18,19,19,20,20],"right_children":[2,4,6,-1,-1,-1,8,10,12,14,16,18,20,-1,-1,-1,-1,22,24,26,28,-1,-1,-1,-1,-1,-1,-1,-1],"split_conditions":[-5.664597E-4,2.7139587E1,2.4878994E1,4.6668183E-2,-1.0400842E-2,-4.032836E-2,-1.0055566E-3,1.3943133E-3,1.8928922E-3,9.092886E-4,-1.6720535E-3,-1.2413638E-4,2.228344E-3,1.880979E-2,-3.2036606E-2,-2.2365614E-3,5.7616305E-2,-3.7367558E-4,-5.775574E-5,9.9784243E-1,9.9772877E-1,3.5639748E-2,-3.9080188E-2,5.386358E-2,-7.585062E-6,-8.725698E-3,-5.2099705E-2,-3.2039225E-2,3.2465145E-2],"split_indices":[6,3,3,0,0,0,0,4,4,7,0,6,4,0,0,0,0,6,6,1,1,0,0,0,0,0,0,0,0],"split_type":[0,0,0,0,0,0,0,0,0,0,0,0,0,0,0,0,0,0,0,0,0,0,0,0,0,0,0,0,0],"sum_hessian":[5.363279E1,3.7224846E0,4.9910305E1,2.0135875E0,1.7088974E0,1.2233174E0,4.868699E1,6.706896E0,4.198009E1,2.5795565E0,4.1273394E0,3.2431667E1,9.548426E0,1.3395666E0,1.2399899E0,1.4243208E0,2.7030187E0,6.20986E0,2.6221807E1,6.194705E0,3.353721E0,1.3735127E0,4.836347E0,2.030505E0,2.4191301E1,2.582982E0,3.611723E0,1.5979146E0,1.7558063E0],"tree_param":{"num_deleted":"0","num_feature":"8","num_nodes":"29","size_leaf_vector":"1"}},{"base_weights":[-1.4400337E-2,-3.592123E-2,1.7589409E-2,-5.017738E-1,5.9792258E-2,1.5145396E-2,-5.2650433E-2,1.6315863E-1,-2.0253389E-1,3.19662E-1,-1.6941679E-1,3.9110914E-1,-5.2010244E-1,-2.9760307E-1,4.421427E-1,4.3524358E-1,-3.4107578E-1,4.9322926E-2,-4.346304E-2,-7.5307435E-1,9.166183E-2,1.9988477E-2,-4.1453753E-2,2.7141247E-2,-1.6946604E-2,4.1452344E-3,2.8469404E-2,-4.7902595E-2,5.3986767E-3,3.7072413E-2,-2.6551789E-2,1.1083439E-2,-5.079322E-2,-4.33813E-2,4.3825425E-2],"categories":[],"categories_nodes":[],"categories_segments":[],"categories_sizes":[],"default_left":[0,0,0,0,0,0,0,0,0,0,0,0,0,0,0,0,0,0,0,0,0,0,0,0,0,0,0,0,0,0,0,0,0,0,0],"id":35,"left_children":[1,-1,3,5,7,-1,-1,9,11,13,15,17,19,21,23,25,27,-1,29,31,33,-1,-1,-1,-1,-1,-1,-1,-1,-1,-1,-1,-1,-1,-1],"loss_changes":[1.2377104E0,0E0,1.1918522E0,2.133203E0,1.3865899E0,0E0,0E0,1.9467479E0,2.9475052E0,2.0271351E0,1.4240112E0,1.5030122E0,1.4817426E0,2.091569E0,1.8608651E0,1.0199535E-1,2.9106686E0,0E0,2.0087843E0,2.0917568E0,3.4898572E0,0E0,0E0,0E0,0E0,0E0,0E0,0E0,0E0,0E0,0E0,0E0,0E0,0E0,0E0],"parents":[2147483647,0,0,2,2,3,3,4,4,7,7,8,8,9,9,10,10,11,11,12,12,13,13,14,14,15,15,16,16,18,18,19,19,20,20],"right_children":[2,-1,4,6,8,-1,-1,10,12,14,16,18,20,22,24,26,28,-1,30,32,34,-1,-1,-1,-1,-1,-1,-1,-1,-1,-1,-1,-1,-1,-1],"split_conditions":[7.360213E-4,-3.592123E-2,9.8976386E-1,4.104762E1,1.8928922E-3,1.5145396E-2,-5.2650433E-2,9.9907786E-1,3.797054E1,9.9538064E-1,-3.811039E-4,9.911538E-1,2.2287767E-3,9.967476E-1,9.0300214E-1,3.0821148E1,-1.285316E-4,4.9322926E-2,2.746063E1,-6.7018444E-4,9.9772877E-1,1.9988477E-2,-4.1453753E-2,2.7141247E-2,-1.6946604E-2,4.1452344E-3,2.8469404E-2,-4.7902595E-2,5.3986767E-3,3.7072413E-2,-2.6551789E-2,1.1083439E-2,-5.079322E-2,-4.33813E-2,4.3825425E-2],"split_indices":[4,0,2,3,4,0,0,2,3,1,6,2,4,2,5,3,6,0,3,0,1,0,0,0,0,0,0,0,0,0,0,0,0,0,0],"split_type":[0,0,0,0,0,0,0,0,0,0,0,0,0,0,0,0,0,0,0,0,0,0,0,0,0,0,0,0,0,0,0,0,0,0,0],"sum_hessian":[5.3395596E1,1.3881211E0,5.2007477E1,3.0900955E0,4.891738E1,1.439392E0,1.6507035E0,3.5361607E1,1.3555773E1,2.4072428E1,1.1289179E1,4.6436486E0,8.912124E0,3.74897E0,2.0323458E1,2.1567216E0,9.132458E0,1.4235202E0,3.2201283E0,6.2869434E0,2.6251802E0,1.7285953E0,2.0203748E0,1.827305E1,2.0504081E0,1.0408609E0,1.1158607E0,3.369452E0,5.7630057E0,1.0343323E0,2.185796E0,1.3682605E0,4.918683E0,1.1338487E0,1.4913315E0],"tree_param":{"num_deleted":"0","num_feature":"8","num_nodes":"35","size_leaf_vector":"1"}},{"base_weights":[-1.5166784E-2,-3.5344046E-2,1.6079959E-2,9.492093E-2,-2.533568E-1,-2.2600811E-2,6.324012E-1,-4.8063897E-2,6.3143405E-3,2.559498E-1,-2.1058173E-1,-1.5832013E-2,8.9520353E-1,5.0834596E-1,-4.5069662E-1,-3.8216025E-1,4.9061456E-1,-8.78325E-1,-4.1768663E-3,7.0071644E-3,5.90073E-2,4.415114E-2,-1.6451329E-2,-7.40611E-1,1.43772485E-2,8.158825E-3,-5.03986E-2,3.686906E-2,-4.0082233E-3,-1.3809877E-2,-5.7857197E-2,1.4766419E-2,-1.7427929E-2,1.6363708E-2,-5.8165748E-2],"categories":[],"categories_nodes":[],"categories_segments":[],"categories_sizes":[],"default_left":[0,0,0,0,0,0,0,0,0,0,0,0,0,0,0,0,0,0,0,0,0,0,0,0,0,0,0,0,0,0,0,0,0,0,0],"id":36,"left_children":[1,-1,3,5,7,9,11,-1,13,15,17,-1,19,21,23,25,27,29,31,-1,-1,-1,-1,33,-1,-1,-1,-1,-1,-1,-1,-1,-1,-1,-1],"loss_changes":[1.1791193E0,0E0,1.1429148E0,2.6340802E0,2.247986E0,1.8865168E0,2.1480517E0,0E0,2.50425E0,2.366775E0,2.9520397E0,0E0,1.1504688E0,1.9205484E0,1.4374E0,1.6917598E0,1.6194956E0,5.297129E-1,1.8962433E0,0E0,0E0,0E0,0E0,2.3612223E0,0E0,0E0,0E0,0E0,0E0,0E0,0E0,0E0,0E0,0E0,0E0],"parents":[2147483647,0,0,2,2,3,3,4,4,5,5,6,6,8,8,9,9,10,10,12,12,13,13,14,14,15,15,16,16,17,17,18,18,23,23],"right_children":[2,-1,4,6,8,10,12,-1,14,16,18,-1,20,22,24,26,28,30,32,-1,-1,-1,-1,34,-1,-1,-1,-1,-1,-1,-1,-1,-1,-1,-1],"split_conditions":[7.360213E-4,-3.5344046E-2,7.575469E-1,6.2648064E-1,7.867627E-1,-4.1332276E-4,-4.5149802E-4,-4.8063897E-2,6.6910475E-4,1.445478E-2,-7.701194E-5,-1.5832013E-2,9.9903136E-1,9.0300214E-1,1.3247996E-3,-3.2311395E-2,9.9779683E-1,4.3968433E1,3.6951697E-1,7.0071644E-3,5.90073E-2,4.415114E-2,-1.6451329E-2,-3.4204405E-4,1.43772485E-2,8.158825E-3,-5.03986E-2,3.686906E-2,-4.0082233E-3,-1.3809877E-2,-5.7857197E-2,1.4766419E-2,-1.7427929E-2,1.6363708E-2,-5.8165748E-2],"split_indices":[4,0,5,5,5,0,0,0,7,5,0,0,1,5,0,5,2,3,5,0,0,0,0,0,0,0,0,0,0,0,0,0,0,0,0],"split_type":[0,0,0,0,0,0,0,0,0,0,0,0,0,0,0,0,0,0,0,0,0,0,0,0,0,0,0,0,0,0,0,0,0,0,0],"sum_hessian":[5.3028072E1,1.3573629E0,5.167071E1,4.0474895E1,1.1195815E1,3.3998882E1,6.4760118E0,2.2794971E0,8.916318E0,1.3553581E1,2.0445303E1,1.3599713E0,5.1160407E0,4.1953506E0,4.7209673E0,3.4751837E0,1.0078398E1,4.058912E0,1.638639E1,1.8104407E0,3.3056E0,2.8607922E0,1.3345585E0,3.3874674E0,1.3334999E0,2.2520168E0,1.223167E0,6.832567E0,3.2458303E0,1.9146659E0,2.1442456E0,8.840413E0,7.545978E0,1.0246454E0,2.3628218E0],"tree_param":{"num_deleted":"0","num_feature":"8","num_nodes":"35","size_leaf_vector":"1"}},{"base_weights":[-1.6638434E-2,-3.4781955E-2,1.38261365E-2,-4.908416E-1,5.5031262E-2,1.426484E-2,-5.116987E-2,1.4045791E-1,-2.2598855E-1,6.642835E-1,2.3957025E-2,-5.953798E-1,2.5186524E-1,1.3726108E-1,5.3646244E-2,2.8105688E-1,-2.2739655E-1,-8.8323563E-1,2.5137534E-2,-2.4880884E-2,7.167979E-1,4.114303E-2,-1.925195E-2,-3.7906903E-3,4.246615E-2,-1.8414702E-2,2.7346326E-2,6.751767E-3,-5.599336E-2,5.1115014E-2,-4.7406955E-3],"categories":[],"categories_nodes":[],"categories_segments":[],"categories_sizes":[],"default_left":[0,0,0,0,0,0,0,0,0,0,0,0,0,0,0,0,0,0,0,0,0,0,0,0,0,0,0,0,0,0,0],"id":37,"left_children":[1,-1,3,5,7,-1,-1,9,11,13,15,17,19,21,-1,23,25,27,-1,-1,29,-1,-1,-1,-1,-1,-1,-1,-1,-1,-1],"loss_changes":[1.1213346E0,0E0,1.1170095E0,1.9690752E0,1.2166859E0,0E0,0E0,2.3317091E0,2.2487164E0,1.3520131E0,2.164642E0,2.6578236E0,2.4079483E0,1.816197E0,0E0,3.4140549E0,2.0550637E0,1.5756392E0,0E0,0E0,1.0993221E0,0E0,0E0,0E0,0E0,0E0,0E0,0E0,0E0,0E0,0E0],"parents":[2147483647,0,0,2,2,3,3,4,4,7,7,8,8,9,9,10,10,11,11,12,12,13,13,15,15,16,16,17,17,20,20],"right_children":[2,-1,4,6,8,-1,-1,10,12,14,16,18,20,22,-1,24,26,28,-1,-1,30,-1,-1,-1,-1,-1,-1,-1,-1,-1,-1],"split_conditions":[7.360213E-4,-3.4781955E-2,9.8976386E-1,4.104762E1,7.575469E-1,1.426484E-2,-5.116987E-2,9.9100685E-1,9.998561E-1,1.2722594E-4,1.0717218E-3,1.3247996E-3,6.563875E-4,1.5612897E-1,5.3646244E-2,1.0704405E-3,5.648148E1,5.3360255E-4,2.5137534E-2,-2.4880884E-2,6.642512E1,4.114303E-2,-1.925195E-2,-3.7906903E-3,4.246615E-2,-1.8414702E-2,2.7346326E-2,6.751767E-3,-5.599336E-2,5.1115014E-2,-4.7406955E-3],"split_indices":[4,0,2,3,5,0,0,2,1,6,7,0,7,5,0,4,3,7,0,0,3,0,0,0,0,0,0,0,0,0,0],"split_type":[0,0,0,0,0,0,0,0,0,0,0,0,0,0,0,0,0,0,0,0,0,0,0,0,0,0,0,0,0,0,0],"sum_hessian":[5.2743862E1,1.3272597E0,5.1416603E1,3.0574722E0,4.835913E1,1.4331334E0,1.6243389E0,3.7469143E1,1.0889984E1,5.9616556E0,3.150749E1,6.003333E0,4.8866515E0,3.1871293E0,2.7745261E0,1.5517284E1,1.5990205E1,4.911548E0,1.0917851E0,1.8439146E0,3.0427368E0,1.129297E0,2.0578322E0,1.0063808E1,5.4534764E0,1.3972166E1,2.0180385E0,1.0071092E0,3.9044387E0,2.0220246E0,1.020712E0],"tree_param":{"num_deleted":"0","num_feature":"8","num_nodes":"31","size_leaf_vector":"1"}},{"base_weights":[-1.495385E-2,5.475464E-1,-5.142131E-2,3.8986977E-2,2.6170327E-3,-8.461329E-2,2.983965E-2,-1.9275452E-1,1.4274983E-1,-1.2753017E-1,-5.34409E-2,4.4556317E-1,-2.1377999E-1,-2.0408303E-1,4.41498E-2,7.9870725E-1,-3.3567246E-2,3.684869E-2,-4.549344E-1,-7.3014613E-4,-2.7080214E-2,4.698879E-2,7.372178E-3,-4.415216E-2,8.034643E-3],"categories":[],"categories_nodes":[],"categories_segments":[],"categories_sizes":[],"default_left":[0,0,0,0,0,0,0,0,0,0,0,0,0,0,0,0,0,0,0,0,0,0,0,0,0],"id":38,"left_children":[1,3,5,-1,-1,7,-1,9,11,13,-1,15,17,19,-1,21,-1,-1,23,-1,-1,-1,-1,-1,-1],"loss_changes":[1.1247886E0,3.4331644E-1,1.150365E0,0E0,0E0,1.2447239E0,0E0,1.8049994E0,1.88001E0,2.7141244E0,0E0,4.189931E0,2.2309587E0,1.9913489E0,0E0,5.499954E-1,0E0,0E0,2.0430598E0,0E0,0E0,0E0,0E0,0E0,0E0],"parents":[2147483647,0,0,1,1,2,2,5,5,7,7,8,8,9,9,11,11,12,12,13,13,15,15,18,18],"right_children":[2,4,6,-1,-1,8,-1,10,12,14,-1,16,18,20,-1,22,-1,-1,24,-1,-1,-1,-1,-1,-1],"split_conditions":[-6.2408665E-4,1.8372325E-3,1.0013801E0,3.8986977E-2,2.6170327E-3,2.1209565E-4,2.983965E-2,2.0364481E-4,7.563393E-1,1.8148428E-4,-5.34409E-2,9.927925E-1,2.2533185E-4,4.083467E-1,4.41498E-2,9.990697E-1,-3.3567246E-2,3.684869E-2,8.8185763E-1,-7.3014613E-4,-2.7080214E-2,4.698879E-2,7.372178E-3,-4.415216E-2,8.034643E-3],"split_indices":[6,4,1,0,0,6,0,6,5,6,0,2,6,5,0,1,0,0,5,0,0,0,0,0,0],"split_type":[0,0,0,0,0,0,0,0,0,0,0,0,0,0,0,0,0,0,0,0,0,0,0,0,0],"sum_hessian":[5.2460506E1,2.3407314E0,5.0119774E1,1.20238E0,1.1383514E0,4.8505505E1,1.61427E0,3.297415E1,1.5531353E1,3.1755476E1,1.2186755E0,8.26331E0,7.2680426E0,3.0261078E1,1.4943985E0,6.4947076E0,1.7686028E0,1.0545284E0,6.213514E0,2.0049059E1,1.0212018E1,4.974246E0,1.5204613E0,3.408709E0,2.8048048E0],"tree_param":{"num_deleted":"0","num_feature":"8","num_nodes":"25","size_leaf_vector":"1"}},{"base_weights":[-1.3183693E-2,5.359487E-1,-4.8726514E-2,3.827264E-2,2.5478406E-3,-8.09576E-2,2.909951E-2,-4.239457E-2,-3.593668E-2,9.391196E-2,-2.4107407E-1,3.9382473E-1,-7.512325E-2,4.2140004E-1,-4.2624414E-1,4.037811E-2,3.718145E-3,-1.8648323E-2,1.3926478E-2,4.005046E-2,-1.5460993E-2,2.9850215E-2,-2.7255496E-2],"categories":[],"categories_nodes":[],"categories_segments":[],"categories_sizes":[],"default_left":[0,0,0,0,0,0,0,0,0,0,0,0,0,0,0,0,0,0,0,0,0,0,0],"id":39,"left_children":[1,3,5,-1,-1,7,-1,9,-1,11,13,15,17,19,21,-1,-1,-1,-1,-1,-1,-1,-1],"loss_changes":[1.0655189E0,3.3061564E-1,1.0825311E0,0E0,0E0,1.1829097E0,0E0,1.3113039E0,0E0,1.4968348E0,2.5892062E0,1.340006E0,2.1420372E0,1.5772684E0,2.2531242E0,0E0,0E0,0E0,0E0,0E0,0E0,0E0,0E0],"parents":[2147483647,0,0,1,1,2,2,5,5,7,7,9,9,10,10,11,11,12,12,13,13,14,14],"right_children":[2,4,6,-1,-1,8,-1,10,-1,12,14,16,18,20,22,-1,-1,-1,-1,-1,-1,-1,-1],"split_conditions":[-6.2408665E-4,1.8372325E-3,1.0013801E0,3.827264E-2,2.5478406E-3,1.0010831E0,2.909951E-2,1.0872422E-3,-3.593668E-2,3.5087892E-1,9.910188E-1,6.819844E-4,1.8148428E-4,5.028969E1,9.9433875E-1,4.037811E-2,3.718145E-3,-1.8648323E-2,1.3926478E-2,4.005046E-2,-1.5460993E-2,2.9850215E-2,-2.7255496E-2],"split_indices":[6,4,1,0,0,1,0,7,0,5,2,7,6,3,1,0,0,0,0,0,0,0,0],"split_type":[0,0,0,0,0,0,0,0,0,0,0,0,0,0,0,0,0,0,0,0,0,0,0],"sum_hessian":[5.225439E1,2.3207119E0,4.9933678E1,1.1827434E0,1.1379684E0,4.8335278E1,1.5984025E0,4.6584995E1,1.7502817E0,2.7942213E1,1.8642782E1,9.592595E0,1.8349617E1,3.7938738E0,1.4848908E1,3.5138714E0,6.078724E0,9.931112E0,8.418505E0,2.4332733E0,1.3606004E0,1.1267605E0,1.3722148E1],"tree_param":{"num_deleted":"0","num_feature":"8","num_nodes":"23","size_leaf_vector":"1"}},{"base_weights":[-1.0653887E-2,-3.370124E-2,1.860129E-2,-4.6910006E-1,5.8442123E-2,1.3771685E-2,-4.9312886E-2,1.5153052E-1,-1.7966779E-1,2.9331526E-1,-1.4685044E-1,3.9038005E-1,-4.8989743E-1,-3.7593615E-1,3.935969E-1,4.1382256E-1,-3.064507E-1,7.016575E-1,-1.2354336E-2,-7.1429396E-1,9.75656E-2,1.1920537E-2,-4.3721676E-2,2.4093272E-2,-1.5682891E-2,3.67216E-3,2.7210115E-2,-4.5128144E-2,6.178276E-3,5.3912666E-2,-5.877473E-3,1.040665E-2,-4.826684E-2,-4.082985E-2,4.2127393E-2],"categories":[],"categories_nodes":[],"categories_segments":[],"categories_sizes":[],"default_left":[0,0,0,0,0,0,0,0,0,0,0,0,0,0,0,0,0,0,0,0,0,0,0,0,0,0,0,0,0,0,0,0,0,0,0],"id":40,"left_children":[1,-1,3,5,7,-1,-1,9,11,13,15,17,19,21,23,25,27,29,-1,31,33,-1,-1,-1,-1,-1,-1,-1,-1,-1,-1,-1,-1,-1,-1],"loss_changes":[1.042412E0,0E0,1.0338874E0,1.8205571E0,1.1083596E0,0E0,0E0,1.5495546E0,2.6965816E0,1.7904086E0,1.2128527E0,1.2744966E0,1.3375227E0,1.3417884E0,1.5103273E0,9.826034E-2,2.6805344E0,1.3573909E0,0E0,1.8402996E0,3.0975928E0,0E0,0E0,0E0,0E0,0E0,0E0,0E0,0E0,0E0,0E0,0E0,0E0,0E0,0E0],"parents":[2147483647,0,0,2,2,3,3,4,4,7,7,8,8,9,9,10,10,11,11,12,12,13,13,14,14,15,15,16,16,17,17,19,19,20,20],"right_children":[2,-1,4,6,8,-1,-1,10,12,14,16,18,20,22,24,26,28,30,-1,32,34,-1,-1,-1,-1,-1,-1,-1,-1,-1,-1,-1,-1,-1,-1],"split_conditions":[7.360213E-4,-3.370124E-2,9.8976386E-1,4.104762E1,1.8928922E-3,1.3771685E-2,-4.9312886E-2,9.9907786E-1,3.797054E1,9.952819E-1,-3.811039E-4,9.983613E-1,2.2287767E-3,9.950757E-1,9.0300214E-1,3.0821148E1,-1.285316E-4,4.7446924E-4,-1.2354336E-2,-6.7018444E-4,9.9772877E-1,1.1920537E-2,-4.3721676E-2,2.4093272E-2,-1.5682891E-2,3.67216E-3,2.7210115E-2,-4.5128144E-2,6.178276E-3,5.3912666E-2,-5.877473E-3,1.040665E-2,-4.826684E-2,-4.082985E-2,4.2127393E-2],"split_indices":[4,0,2,3,4,0,0,2,3,1,6,1,4,1,5,3,6,0,0,0,1,0,0,0,0,0,0,0,0,0,0,0,0,0,0],"split_type":[0,0,0,0,0,0,0,0,0,0,0,0,0,0,0,0,0,0,0,0,0,0,0,0,0,0,0,0,0,0,0,0,0,0,0],"sum_hessian":[5.206707E1,1.2683058E0,5.0798763E1,3.0227077E0,4.7776054E1,1.4305719E0,1.5921357E0,3.460927E1,1.3166785E1,2.3472553E1,1.1136716E1,4.549221E0,8.617565E0,2.7006137E0,2.077194E1,2.1147535E0,9.021962E0,2.9889896E0,1.5602314E0,6.0794625E0,2.5381021E0,1.4434506E0,1.2571633E0,1.8750479E1,2.0214617E0,1.0186609E0,1.0960927E0,3.3202899E0,5.7016726E0,1.8310333E0,1.1579562E0,1.3371586E0,4.742304E0,1.0964844E0,1.4416177E0],"tree_param":{"num_deleted":"0","num_feature":"8","num_nodes":"35","size_leaf_vector":"1"}},{"base_weights":[-1.2142041E-2,4.368041E-1,-5.3635333E-2,4.4078287E-2,-1.0342082E-2,-3.890248E-2,-1.9799026E-2,4.348195E-1,-1.012042E-1,-1.3763541E-1,7.548214E-1,5.849369E-3,-4.374024E-1,1.8812053E-2,-3.0371701E-2,-3.2819533E-3,5.456031E-2,-3.5740727E-1,1.0266653E-1,-6.677201E-1,4.418117E-2,3.292657E-2,-3.5579704E-2,5.1367868E-2,-6.828576E-4,-6.2192804E-3,-4.756904E-2,-2.7604213E-2,2.968649E-2],"categories":[],"categories_nodes":[],"categories_segments":[],"categories_sizes":[],"default_left":[0,0,0,0,0,0,0,0,0,0,0,0,0,0,0,0,0,0,0,0,0,0,0,0,0,0,0,0,0],"id":41,"left_children":[1,3,5,-1,-1,-1,7,9,11,13,15,17,19,-1,-1,-1,-1,21,23,25,27,-1,-1,-1,-1,-1,-1,-1,-1],"loss_changes":[1.005507E0,1.4905045E0,1.1893399E0,0E0,0E0,0E0,1.8197744E0,1.4733788E0,1.4964488E0,1.0798714E0,1.4376538E0,1.1786166E0,1.1428798E0,0E0,0E0,0E0,0E0,3.0075479E0,2.85513E0,9.37783E-1,1.6992664E0,0E0,0E0,0E0,0E0,0E0,0E0,0E0,0E0],"parents":[2147483647,0,0,1,1,2,2,6,6,7,7,8,8,9,9,10,10,11,11,12,12,17,17,18,18,19,19,20,20],"right_children":[2,4,6,-1,-1,-1,8,10,12,14,16,18,20,-1,-1,-1,-1,22,24,26,28,-1,-1,-1,-1,-1,-1,-1,-1],"split_conditions":[-5.664597E-4,2.7139587E1,2.4878994E1,4.4078287E-2,-1.0342082E-2,-3.890248E-2,-1.0055566E-3,1.3943133E-3,1.8928922E-3,9.092886E-4,-1.6720535E-3,-1.2413638E-4,2.228344E-3,1.8812053E-2,-3.0371701E-2,-3.2819533E-3,5.456031E-2,-3.7367558E-4,-5.775574E-5,9.9784243E-1,9.9772877E-1,3.292657E-2,-3.5579704E-2,5.1367868E-2,-6.828576E-4,-6.2192804E-3,-4.756904E-2,-2.7604213E-2,2.968649E-2],"split_indices":[6,3,3,0,0,0,0,4,4,7,0,6,4,0,0,0,0,6,6,1,1,0,0,0,0,0,0,0,0],"split_type":[0,0,0,0,0,0,0,0,0,0,0,0,0,0,0,0,0,0,0,0,0,0,0,0,0,0,0,0,0],"sum_hessian":[5.1719856E1,3.5696893E0,4.815017E1,1.8923937E0,1.6772954E0,1.1671743E0,4.6982994E1,6.4759164E0,4.0507076E1,2.5263658E0,3.9495504E0,3.1469147E1,9.03793E0,1.3016907E0,1.2246752E0,1.3824791E0,2.5670714E0,6.0559053E0,2.5413242E1,5.8524714E0,3.185458E0,1.3433638E0,4.7125416E0,1.964553E0,2.3448689E1,2.5008156E0,3.351656E0,1.5255775E0,1.6598803E0],"tree_param":{"num_deleted":"0","num_feature":"8","num_nodes":"29","size_leaf_vector":"1"}},{"base_weights":[-1.0978092E-2,-3.3203404E-2,1.781275E-2,5.3788114E-1,-2.0123815E-2,3.847487E-2,1.4000665E-4,-5.6705064E-1,3.417971E-2,6.538391E-3,-5.4661818E-2,6.963391E-1,-4.252389E-2,4.507746E-2,2.3560047E-4,-4.908417E-2,9.6630305E-3,2.8986443E-2,-2.133952E-3],"categories":[],"categories_nodes":[],"categories_segments":[],"categories_sizes":[],"default_left":[0,0,0,0,0,0,0,0,0,0,0,0,0,0,0,0,0,0,0],"id":42,"left_children":[1,-1,3,5,7,-1,-1,9,11,-1,-1,13,15,-1,-1,-1,17,-1,-1],"loss_changes":[9.9839157E-1,0E0,1.0215101E0,4.3393946E-1,1.4660145E0,0E0,0E0,1.7791957E0,2.3279548E0,0E0,0E0,6.7066455E-1,2.043311E0,0E0,0E0,0E0,1.2273016E0,0E0,0E0],"parents":[2147483647,0,0,2,2,3,3,4,4,7,7,8,8,11,11,12,12,16,16],"right_children":[2,-1,4,6,8,-1,-1,10,12,-1,-1,14,16,-1,-1,-1,18,-1,-1],"split_conditions":[7.360213E-4,-3.3203404E-2,8.0258184E-4,1.8643594E-4,5.369318E-4,3.847487E-2,1.4000665E-4,2.6208214E-5,6.492404E-4,6.538391E-3,-5.4661818E-2,7.575469E-1,6.590405E-4,4.507746E-2,2.3560047E-4,-4.908417E-2,6.6910475E-4,2.8986443E-2,-2.133952E-3],"split_indices":[4,0,4,0,7,0,0,6,7,0,0,5,7,0,0,0,7,0,0],"split_type":[0,0,0,0,0,0,0,0,0,0,0,0,0,0,0,0,0,0,0],"sum_hessian":[5.146834E1,1.2414774E0,5.0226864E1,2.5187771E0,4.7708088E1,1.4521163E0,1.0666609E0,3.4561965E0,4.4251892E1,1.8088331E0,1.6473634E0,3.7552886E0,4.04966E1,2.6619515E0,1.0933369E0,1.1942308E0,3.9302372E1,2.4578426E0,3.684453E1],"tree_param":{"num_deleted":"0","num_feature":"8","num_nodes":"19","size_leaf_vector":"1"}},{"base_weights":[-1.0820173E-2,5.1689863E-1,-4.5018107E-2,3.6854893E-2,2.6195534E-3,-7.594146E-2,2.7897632E-2,-1.8085206E-1,1.4590089E-1,-1.1690606E-1,-5.152319E-2,4.3777594E-1,-1.9932835E-1,-1.8955758E-1,4.228482E-2,7.733144E-1,-3.1245902E-2,2.7058069E-2,-4.8652706E-1,-8.251943E-4,-2.483206E-2,4.5505337E-2,7.3061283E-3,2.010639E-2,-3.7623685E-2],"categories":[],"categories_nodes":[],"categories_segments":[],"categories_sizes":[],"default_left":[0,0,0,0,0,0,0,0,0,0,0,0,0,0,0,0,0,0,0,0,0,0,0,0,0],"id":43,"left_children":[1,3,5,-1,-1,7,-1,9,11,13,-1,15,17,19,-1,21,-1,-1,23,-1,-1,-1,-1,-1,-1],"loss_changes":[9.677194E-1,2.9534847E-1,9.759335E-1,0E0,0E0,1.1552901E0,0E0,1.6929623E0,1.7123015E0,2.4101086E0,0E0,3.7108884E0,1.9806789E0,1.6248224E0,0E0,4.9559116E-1,0E0,0E0,1.8021973E0,0E0,0E0,0E0,0E0,0E0,0E0],"parents":[2147483647,0,0,1,1,2,2,5,5,7,7,8,8,9,9,11,11,12,12,13,13,15,15,18,18],"right_children":[2,4,6,-1,-1,8,-1,10,12,14,-1,16,18,20,-1,22,-1,-1,24,-1,-1,-1,-1,-1,-1],"split_conditions":[-6.2408665E-4,1.8372325E-3,1.0013801E0,3.6854893E-2,2.6195534E-3,2.1209565E-4,2.7897632E-2,2.0364481E-4,7.563393E-1,1.8148428E-4,-5.152319E-2,9.927925E-1,5.7984497E1,4.083467E-1,4.228482E-2,9.990697E-1,-3.1245902E-2,2.7058069E-2,6.1750185E-4,-8.251943E-4,-2.483206E-2,4.5505337E-2,7.3061283E-3,2.010639E-2,-3.7623685E-2],"split_indices":[6,4,1,0,0,6,0,6,5,6,0,2,3,5,0,1,0,0,7,0,0,0,0,0,0],"split_type":[0,0,0,0,0,0,0,0,0,0,0,0,0,0,0,0,0,0,0,0,0,0,0,0,0],"sum_hessian":[5.1333084E1,2.2650769E0,4.906801E1,1.1385239E0,1.1265529E0,4.750573E1,1.5622766E0,3.237851E1,1.5127222E1,3.1170094E1,1.2084162E0,8.051763E0,7.075459E0,2.9729374E1,1.4407187E0,6.326515E0,1.7252473E0,1.7301937E0,5.3452654E0,1.9688099E1,1.0041275E1,4.82343E0,1.5030854E0,1.1132622E0,4.232003E0],"tree_param":{"num_deleted":"0","num_feature":"8","num_nodes":"25","size_leaf_vector":"1"}},{"base_weights":[-9.074193E-3,-3.2554824E-2,1.8916372E-2,5.269926E-1,-1.794722E-2,3.7695706E-2,3.0977043E-4,-5.447896E-1,3.4310006E-2,6.455911E-3,-5.287093E-2,6.7841256E-1,-4.004439E-2,4.393578E-2,1.8527918E-4,-4.7039825E-2,9.882453E-3,2.7974797E-2,-2.0210159E-3],"categories":[],"categories_nodes":[],"categories_segments":[],"categories_sizes":[],"default_left":[0,0,0,0,0,0,0,0,0,0,0,0,0,0,0,0,0,0,0],"id":44,"left_children":[1,-1,3,5,7,-1,-1,9,11,-1,-1,13,15,-1,-1,-1,17,-1,-1],"loss_changes":[9.490729E-1,0E0,9.631903E-1,4.0631407E-1,1.3524119E0,0E0,0E0,1.6671995E0,2.1829224E0,0E0,0E0,6.3384986E-1,1.8665738E0,0E0,0E0,0E0,1.131802E0,0E0,0E0],"parents":[2147483647,0,0,2,2,3,3,4,4,7,7,8,8,11,11,12,12,16,16],"right_children":[2,-1,4,6,8,-1,-1,10,12,-1,-1,14,16,-1,-1,-1,18,-1,-1],"split_conditions":[7.360213E-4,-3.2554824E-2,8.0258184E-4,1.8643594E-4,5.369318E-4,3.7695706E-2,3.0977043E-4,2.6208214E-5,6.492404E-4,6.455911E-3,-5.287093E-2,7.575469E-1,6.590405E-4,4.393578E-2,1.8527918E-4,-4.7039825E-2,6.6910475E-4,2.7974797E-2,-2.0210159E-3],"split_indices":[4,0,4,0,7,0,0,6,7,0,0,5,7,0,0,0,7,0,0],"split_type":[0,0,0,0,0,0,0,0,0,0,0,0,0,0,0,0,0,0,0],"sum_hessian":[5.1127266E1,1.2059101E0,4.9921356E1,2.4776158E0,4.744374E1,1.4139253E0,1.0636904E0,3.43075E0,4.4012993E1,1.8054329E0,1.6253171E0,3.7142115E0,4.029878E1,2.6308222E0,1.0833892E0,1.1792847E0,3.9119495E1,2.4313824E0,3.6688114E1],"tree_param":{"num_deleted":"0","num_feature":"8","num_nodes":"19","size_leaf_vector":"1"}},{"base_weights":[-8.978808E-3,5.0750256E-1,-4.2509045E-2,3.624543E-2,2.6038035E-3,-4.79545E-1,3.3251016E-4,-8.370868E-4,-4.3321636E-2,4.357657E-2,-4.4378914E-2,-4.1708544E-1,3.69918E-2,-6.832803E-1,2.6135582E-2,6.1659515E-1,-7.542861E-2,-4.9175393E-2,-2.498808E-3,5.598815E-2,2.975225E-3,-4.447324E-2,9.7604695E-4],"categories":[],"categories_nodes":[],"categories_segments":[],"categories_sizes":[],"default_left":[0,0,0,0,0,0,0,0,0,0,0,0,0,0,0,0,0,0,0,0,0,0,0],"id":45,"left_children":[1,3,5,-1,-1,7,9,-1,-1,-1,11,13,15,17,-1,19,21,-1,-1,-1,-1,-1,-1],"loss_changes":[9.2190534E-1,2.8371143E-1,9.3149954E-1,0E0,0E0,7.8075576E-1,1.842212E0,0E0,0E0,0E0,1.3799229E0,2.3945513E0,2.5126605E0,1.2399423E0,0E0,1.6874034E0,2.5363667E0,0E0,0E0,0E0,0E0,0E0,0E0],"parents":[2147483647,0,0,1,1,2,2,5,5,6,6,10,10,11,11,12,12,13,13,15,15,16,16],"right_children":[2,4,6,-1,-1,8,10,-1,-1,-1,12,14,16,18,-1,20,22,-1,-1,-1,-1,-1,-1],"split_conditions":[-6.2408665E-4,1.8372325E-3,2.8788818E-2,3.624543E-2,2.6038035E-3,1.0462096E-3,6.518428E-2,-8.370868E-4,-4.3321636E-2,4.357657E-2,2.327122E-1,4.1805767E1,4.104762E1,1.8072693E-3,2.6135582E-2,1.0193507E-4,-1.308211E-4,-4.9175393E-2,-2.498808E-3,5.598815E-2,2.975225E-3,-4.447324E-2,9.7604695E-4],"split_indices":[6,4,5,0,0,7,5,0,0,0,5,3,3,4,0,0,6,0,0,0,0,0,0],"split_type":[0,0,0,0,0,0,0,0,0,0,0,0,0,0,0,0,0,0,0,0,0,0,0],"sum_hessian":[5.0988987E1,2.246681E0,4.8742306E1,1.1202129E0,1.126468E0,3.4414883E0,4.530082E1,2.0420353E0,1.3994528E0,1.3086916E0,4.3992126E1,7.1440625E0,3.6848064E1,5.7798777E0,1.3641847E0,5.257478E0,3.1590586E1,3.545907E0,2.2339706E0,2.2317386E0,3.02574E0,2.4257774E0,2.9164808E1],"tree_param":{"num_deleted":"0","num_feature":"8","num_nodes":"23","size_leaf_vector":"1"}},{"base_weights":[-8.009134E-3,-3.2075446E-2,1.941677E-2,3.0845296E-1,-4.40606E-2,6.203949E-1,-4.405442E-2,-4.517974E-2,2.1972724E-3,-1.7346825E-2,8.4095E-1,5.907328E-1,-4.9926084E-2,-2.584091E-3,5.1360197E-2,4.233266E-2,1.7729998E-3,-4.4703353E-2,-6.377659E-5,3.7718706E-2,-2.1383113E-3],"categories":[],"categories_nodes":[],"categories_segments":[],"categories_sizes":[],"default_left":[0,0,0,0,0,0,0,0,0,0,0,0,0,0,0,0,0,0,0,0,0],"id":46,"left_children":[1,-1,3,5,7,9,-1,-1,11,-1,13,15,17,-1,-1,-1,-1,-1,19,-1,-1],"loss_changes":[9.1297656E-1,0E0,9.428876E-1,3.9773867E0,1.6880096E0,1.9797013E0,0E0,0E0,1.2944916E0,0E0,1.1727791E0,4.578141E-1,1.6332306E0,0E0,0E0,0E0,0E0,0E0,1.2448756E0,0E0,0E0],"parents":[2147483647,0,0,2,2,3,3,4,4,5,5,8,8,10,10,11,11,12,12,18,18],"right_children":[2,-1,4,6,8,10,-1,-1,12,-1,14,16,18,-1,-1,-1,-1,-1,20,-1,-1],"split_conditions":[7.360213E-4,-3.2075446E-2,9.120502E-4,5.1664707E-4,5.369318E-4,9.9763954E-1,-4.405442E-2,-4.517974E-2,6.492404E-4,-1.7346825E-2,-4.1596277E-4,1.0000795E0,6.5979577E-4,-2.584091E-3,5.1360197E-2,4.233266E-2,1.7729998E-3,-4.4703353E-2,6.6238275E-4,3.7718706E-2,-2.1383113E-3],"split_indices":[4,0,4,0,7,2,0,0,7,0,0,1,7,0,0,0,0,0,7,0,0],"split_type":[0,0,0,0,0,0,0,0,0,0,0,0,0,0,0,0,0,0,0,0,0],"sum_hessian":[5.0830605E1,1.1801515E0,4.965045E1,8.245652E0,4.14048E1,6.9116263E0,1.3340261E0,1.1679953E0,4.0236805E1,1.1768916E0,5.734735E0,2.4329138E0,3.780389E1,1.114751E0,4.6199837E0,1.3061632E0,1.1267506E0,1.1641842E0,3.6639706E1,1.0699918E0,3.5569717E1],"tree_param":{"num_deleted":"0","num_feature":"8","num_nodes":"21","size_leaf_vector":"1"}},{"base_weights":[-8.665255E-3,4.9845883E-1,-4.1626785E-2,2.515367E-3,3.570396E-2,1.0985863E-1,-1.6202775E-1,-5.193779E-1,3.2274342E-1,6.993611E-2,-6.134548E-1,2.6385386E-2,-9.400073E-1,8.374784E-1,-5.9845187E-2,4.73549E-1,-1.18392624E-1,-9.385476E-1,2.2053014E-2,-9.618742E-3,-6.0181346E-2,5.722673E-3,1.0388898E0,3.2230628E-1,-3.6454493E-1,-1.405444E-1,4.4064056E-2,-4.6407443E-2,5.6175325E-2,-1.07902E0,-3.7609132E-3,5.9101876E-2,1.5678138E-2,-2.3378864E-2,4.7912575E-2,1.1208943E-2,-3.1507388E-2,1.6541729E-2,-2.4514347E-2,3.0495653E-2,-1.41869625E-2,-1.8126946E-2,-6.134603E-2],"categories":[],"categories_nodes":[],"categories_segments":[],"categories_sizes":[],"default_left":[0,0,0,0,0,0,0,0,0,0,0,0,0,0,0,0,0,0,0,0,0,0,0,0,0,0,0,0,0,0,0,0,0,0,0,0,0,0,0,0,0,0,0],"id":47,"left_children":[1,3,5,-1,-1,7,9,11,13,15,17,-1,19,21,23,25,27,29,-1,-1,-1,-1,31,33,35,37,-1,-1,39,41,-1,-1,-1,-1,-1,-1,-1,-1,-1,-1,-1,-1,-1],"loss_changes":[8.838952E-1,2.7604878E-1,9.189648E-1,0E0,0E0,3.178378E0,2.9678826E0,3.1673121E0,3.4788604E0,1.5268368E0,3.699359E0,0E0,6.921029E-1,9.7184134E-1,1.3891212E0,1.7153215E0,2.0301807E0,8.459768E-1,0E0,0E0,0E0,0E0,2.2474957E-1,3.1482344E0,1.1647401E0,7.2251254E-1,0E0,0E0,2.517277E0,2.440095E-1,0E0,0E0,0E0,0E0,0E0,0E0,0E0,0E0,0E0,0E0,0E0,0E0,0E0],"parents":[2147483647,0,0,1,1,2,2,5,5,6,6,7,7,8,8,9,9,10,10,12,12,13,13,14,14,15,15,16,16,17,17,22,22,23,23,24,24,25,25,28,28,29,29],"right_children":[2,4,6,-1,-1,8,10,12,14,16,18,-1,20,22,24,26,28,30,-1,-1,-1,-1,32,34,36,38,-1,-1,40,42,-1,-1,-1,-1,-1,-1,-1,-1,-1,-1,-1,-1,-1],"split_conditions":[-6.2408665E-4,9.956955E-1,9.927925E-1,2.515367E-3,3.570396E-2,1.4569594E-3,1.1052258E-3,-3.7088967E-4,1.851202E-3,3.5087892E-1,1.434611E-3,2.6385386E-2,9.9906826E-1,9.99535E-4,5.3345394E-1,3.8047493E1,9.977907E-1,2.228344E-3,2.2053014E-2,-9.618742E-3,-6.0181346E-2,5.722673E-3,5.939005E1,2.4538973E-1,1.8928922E-3,-3.811039E-4,4.4064056E-2,-4.6407443E-2,9.982759E-1,-1.2278042E-3,-3.7609132E-3,5.9101876E-2,1.5678138E-2,-2.3378864E-2,4.7912575E-2,1.1208943E-2,-3.1507388E-2,1.6541729E-2,-2.4514347E-2,3.0495653E-2,-1.41869625E-2,-1.8126946E-2,-6.134603E-2],"split_indices":[6,2,2,0,0,4,7,6,4,5,7,0,1,7,5,3,2,4,0,0,0,0,3,5,4,6,0,0,2,0,0,0,0,0,0,0,0,0,0,0,0,0,0],"split_type":[0,0,0,0,0,0,0,0,0,0,0,0,0,0,0,0,0,0,0,0,0,0,0,0,0,0,0,0,0,0,0,0,0,0,0,0,0,0,0,0,0,0,0],"sum_hessian":[5.0637196E1,2.2285028E0,4.8408695E1,1.1245404E0,1.1039622E0,2.1475866E1,2.6932829E1,5.0650563E0,1.641081E1,1.8349234E1,8.583595E0,1.3786283E0,3.686428E0,6.490077E0,9.920733E0,5.356047E0,1.2993185E1,6.6450033E0,1.9385924E0,1.4119217E0,2.2745063E0,1.755708E0,4.734369E0,4.375385E0,5.545348E0,2.3986678E0,2.9573796E0,1.5387337E0,1.1454452E1,5.5002255E0,1.144778E0,3.428143E0,1.306226E0,2.0695844E0,2.3058004E0,1.7724885E0,3.7728598E0,1.0446982E0,1.3539695E0,4.05475E0,7.3997016E0,1.5316452E0,3.9685802E0],"tree_param":{"num_deleted":"0","num_feature":"8","num_nodes":"43","size_leaf_vector":"1"}},{"base_weights":[-7.8115286E-3,6.197496E-2,-2.4691051E-1,-3.8029693E-2,4.2218244E-1,-4.3802347E-2,-1.5520348E-2,2.7529692E-2,-5.260807E-1,7.415243E-1,-2.9677236E-2,3.714594E-1,-3.7547427E-1,4.3157494E-1,-8.880519E-2,-4.225742E-2,3.7615963E-3,8.440696E-1,2.9687993E-3,7.188207E-1,-1.643539E-2,-6.5584207E-1,1.4553572E-2,-3.044001E-1,8.65304E-1,1.2223559E-2,-4.926784E-2,5.1813286E-2,7.2431015E-3,8.1258435E-3,4.4443056E-2,1.2221213E-2,-5.308363E-2,6.1509064E-3,-2.8448323E-2,5.507442E-2,3.6150587E-3,2.2124236E-2,-5.733599E-3],"categories":[],"categories_nodes":[],"categories_segments":[],"categories_sizes":[],"default_left":[0,0,0,0,0,0,0,0,0,0,0,0,0,0,0,0,0,0,0,0,0,0,0,0,0,0,0,0,0,0,0,0,0,0,0,0,0,0,0],"id":48,"left_children":[1,3,5,7,9,-1,11,13,15,17,-1,19,21,23,25,-1,-1,27,-1,29,-1,31,-1,33,35,37,-1,-1,-1,-1,-1,-1,-1,-1,-1,-1,-1,-1,-1],"loss_changes":[8.7043536E-1,1.4738687E0,1.7011874E0,1.057335E0,3.3194208E0,0E0,1.4808778E0,1.4335836E0,8.1364226E-1,4.5339394E-1,0E0,1.4872257E0,1.2162049E0,2.4361632E0,2.1747487E0,0E0,0E0,6.806135E-1,0E0,2.104311E-1,0E0,1.7828195E0,0E0,4.390507E-1,7.712302E-1,1.2762787E0,0E0,0E0,0E0,0E0,0E0,0E0,0E0,0E0,0E0,0E0,0E0,0E0,0E0],"parents":[2147483647,0,0,1,1,2,2,3,3,4,4,6,6,7,7,8,8,9,9,11,11,12,12,13,13,14,14,17,17,19,19,21,21,23,23,24,24,25,25],"right_children":[2,4,6,8,10,-1,12,14,16,18,-1,20,22,24,26,-1,-1,28,-1,30,-1,32,-1,34,36,38,-1,-1,-1,-1,-1,-1,-1,-1,-1,-1,-1,-1,-1],"split_conditions":[7.575469E-1,2.1209565E-4,7.867627E-1,1.1886265E-3,9.927925E-1,-4.3802347E-2,6.6910475E-4,9.983613E-1,9.980922E-1,1.956279E-3,-2.9677236E-2,9.0300214E-1,1.3247996E-3,1.7900964E-3,1.3420362E-3,-4.225742E-2,3.7615963E-3,9.990697E-1,2.9687993E-3,6.5372983E-4,-1.643539E-2,-2.5827336E-4,1.4553572E-2,4.8986897E-2,9.986574E-1,8.621283E-2,-4.926784E-2,5.1813286E-2,7.2431015E-3,8.1258435E-3,4.4443056E-2,1.2221213E-2,-5.308363E-2,6.1509064E-3,-2.8448323E-2,5.507442E-2,3.6150587E-3,2.2124236E-2,-5.733599E-3],"split_indices":[5,6,5,0,2,0,7,1,1,7,0,5,0,